drug,0,1,2,3,4,5,6,7,8,9,10,11,12,13,14,15,16,17,18,19,20,21,22,23,24,25,26,27,28,29,30,31,32,33,34,35,36,37,38,39,40,41,42,43,44,45,46,47,48,49,50,51,52,53,54,55,56,57,58,59,60,61,62,63,64,65,66,67,68,69,70,71,72,73,74,75,76,77,78,79,80,81,82,83,84,85,86,87,88,89,90,91,92,93,94,95,96,97,98,99,100,101,102,103,104,105,106,107,108,109,110,111,112,113,114,115,116,117,118,119,120,121,122,123,124,125,126,127,128,129,130,131,132,133,134,135,136,137,138,139,140,141,142,143,144,145,146,147,148,149,150,151,152,153,154,155,156,157,158,159,160,161,162,163,164,165,166,167,168,169,170,171,172,173,174,175,176,177,178,179,180,181,182,183,184,185,186,187,188,189,190,191,192,193,194,195,196,197,198,199,200,201,202,203,204,205,206,207,208,209,210,211,212,213,214,215,216,217,218,219,220,221,222,223,224,225,226,227,228,229,230,231,232,233,234,235,236,237,238,239,240,241,242,243,244,245,246,247,248,249,250,251,252,253,254,255,256,257,258,259,260,261,262,263,264,265,266,267,268,269,270,271,272,273,274,275,276,277,278,279,280,281,282,283,284,285,286,287,288,289,290,291,292,293,294,295,296,297,298,299,300,301,302,303,304,305,306,307,308,309,310,311,312,313,314,315,316,317,318,319,320,321,322,323,324,325,326,327,328,329,330,331,332,333,334,335,336,337,338,339,340,341,342,343,344,345,346,347,348,349,350,351,352,353,354,355,356,357,358,359,360,361,362,363,364,365,366,367,368,369,370,371,372,373,374,375,376,377,378,379,380,381,382,383,384,385,386,387,388,389,390,391,392,393,394,395,396,397,398,399,400,401,402,403,404,405,406,407,408,409,410,411,412,413,414,415,416,417,418,419,420,421,422,423,424,425,426,427,428,429,430,431,432,433,434,435,436,437,438,439,440,441,442,443,444,445,446,447,448,449,450,451,452,453,454,455,456,457,458,459,460,461,462,463,464,465,466,467,468,469,470,471,472,473,474,475,476,477,478,479,480,481,482,483,484,485,486,487,488,489,490,491,492,493,494,495,496,497,498,499,500,501,502,503,504,505,506,507,508,509,510,511,512,513,514,515,516,517,518,519,520,521,522,523,524,525,526,527,528,529,530,531,532,533,534,535,536,537,538,539,540,541,542,543,544,545,546,547,548,549,550,551,552,553,554,555,556,557,558,559,560,561,562,563,564,565,566,567,568,569,570,571,572,573,574,575,576,577,578,579,580,581,582,583,584,585,586,587,588,589,590,591,592,593,594,595,596,597,598,599,600,601,602,603,604,605,606,607,608,609,610,611,612,613,614,615,616,617,618,619,620,621,622,623,624,625,626,627,628,629,630,631,632,633,634,635,636,637,638,639,640,641,642,643,644,645,646,647,648,649,650,651,652,653,654,655,656,657,658,659,660,661,662,663,664,665,666,667,668,669,670,671,672,673,674,675,676,677,678,679,680,681,682,683,684,685,686,687,688,689,690,691,692,693,694,695,696,697,698,699,700,701,702,703,704,705,706,707,708,709,710,711,712,713,714,715,716,717,718,719,720,721,722,723,724,725,726,727,728,729,730,731,732,733,734,735,736,737,738,739,740,741,742,743,744,745,746,747,748,749,750,751,752,753,754,755,756,757,758,759,760,761,762,763,764,765,766,767
Talc,0.7154343,0.35871688,-1.3348382,-0.42690542,-1.480399,-1.0826623,-1.7302775,0.17641202,-0.88691515,-0.77188426,0.06101783,0.8448382,-0.6820035,0.732685,-0.6618052,-0.85754347,-0.51558316,0.4876372,0.95525146,2.2903206,-2.1385183,-0.7260264,0.7026731,1.3903068,-0.024939101,-0.17141397,0.6726543,0.7840863,-0.88273084,0.028348977,-1.884808,-0.5198822,-0.538311,1.0672953,0.890136,-0.76892895,0.37822008,-1.1548429,-0.7810403,-0.5992649,0.50316256,-3.389976,-0.55204713,1.0371757,0.1534042,-1.1241722,-0.07299308,-0.2598799,0.4707583,0.13059638,-1.0074793,-0.5764898,0.040661994,-0.3694763,0.7803254,0.38130042,-0.48533592,-1.2596403,-0.15581635,0.21478976,-0.8887649,1.1270022,-0.28746527,1.0445205,-1.0308433,-1.5657965,0.5269514,0.7979768,1.093265,-0.9533252,-1.1300112,-0.74321914,1.8636721,-1.1908321,1.2602928,-0.47305295,-0.6045612,0.81106067,-0.6946805,0.6525088,0.055277266,1.2440456,-0.05039679,2.0277252,-1.0578023,0.7112605,0.88630104,-1.1946582,-0.68497473,1.0794743,0.42016485,-0.9544047,1.3041687,1.7151332,-0.2997279,0.17757383,-0.040340636,-0.560209,1.9600146,-0.3192808,0.4337518,0.12050048,-0.93767357,0.14817725,1.2496241,0.9303254,-0.053975753,0.25091308,-0.052142046,-0.24016415,0.1391482,-0.6458473,-0.6653592,-0.31443682,-0.28630805,-0.5662984,-0.6948992,-0.0938747,-0.457156,-0.02602287,-0.9111963,-1.6255264,-0.973554,0.027261615,-0.4697752,0.5084806,0.326302,-0.8616259,-0.40818006,0.7924525,0.54773074,-1.2662812,0.59475684,1.1266078,-0.21756686,0.37573662,0.65939903,-0.52763337,-2.4328167,-1.3124499,-0.40607765,1.8371373,-1.1959296,1.5688488,0.01633451,-1.3765651,1.9139905,-1.7388542,0.39023075,-0.57312316,1.1568744,-0.6425297,0.63711816,-0.42082092,1.6080968,-1.7170221,2.7178361,-0.8286914,-2.0525122,0.67555165,1.1411798,-0.6896409,-0.007821487,0.2899036,1.0366317,1.6146057,0.40288725,0.113235496,0.75466603,0.9717685,-1.005496,0.6255184,0.60627896,0.06401232,0.101367615,0.81700754,0.06260522,0.11079872,1.128601,-0.21978433,-0.8279258,1.9679745,-0.050647292,-0.15312473,-0.6689605,-1.3854142,0.26475948,0.3535295,-1.2587278,-0.22215763,1.0033321,-0.041131184,-0.23966566,-1.781888,-0.11191561,-0.84188527,0.021141732,0.21308322,-1.0924339,0.37800106,-0.6681606,1.4024547,0.84917533,0.57672036,-0.59115785,0.22480445,0.0970861,1.1440938,-1.1585968,0.29212654,-0.28656125,0.26763725,1.0300589,0.14917625,1.5559982,-1.219498,0.7606461,0.15530974,0.3728429,0.20098864,0.52769005,-0.73266304,0.6968145,0.09791299,-1.4257835,0.8123327,2.741341,0.8727524,-1.5437013,0.942009,0.9307193,-0.2822429,1.1778351,1.3963863,-0.3004006,-0.8715305,-0.90668756,1.0045929,0.92731386,0.1431067,-0.3516981,-0.026833266,-1.9602547,2.5504873,-0.83066016,-1.3334987,0.5669095,1.066615,-2.1022184,-0.8771888,0.41872466,0.25783217,0.8731084,-1.660447,-1.4068718,-2.3376741,0.26743004,-1.0727473,1.9722204,0.19053438,1.0672296,-1.5714487,0.79824156,0.8862104,-0.5443279,-0.88283473,-0.53756905,-0.8195301,-1.187558,1.8040043,0.46689436,1.4447318,1.0303494,0.6100093,0.5697398,-0.019684842,-1.6597385,0.113240846,0.99572146,0.40931928,-0.032844324,0.61736315,0.72504455,0.534724,1.1844238,0.058667123,-0.78948987,-1.2204007,-0.01381176,0.6534835,-0.6029636,-1.4824276,0.008050359,0.92212975,-1.078561,0.34605947,-0.38657784,0.47692278,0.5448017,1.3045245,-0.11738965,-0.98021996,2.785331,-0.8409735,-0.42673704,0.47772604,-0.28934142,0.8785444,1.5133711,1.0064627,-0.88045526,0.74668145,-0.42199454,-0.23123579,-0.30943862,-0.051093977,0.99919164,1.0844849,-0.13769412,0.7057979,-0.7651101,-0.56683534,-0.5425972,0.916827,-0.21312815,2.5747073,-1.2535532,0.14008565,1.4302266,0.6587159,-0.55008525,-1.495683,0.5685621,-0.04557386,-0.4366912,-0.06566406,-0.0279775,0.6242539,-0.82602465,-1.6219534,0.48448464,-0.031520613,0.2583032,-0.5120484,0.66743296,0.8075961,0.29647705,1.1177638,0.9941973,-0.6846819,0.15262753,0.76999384,-0.5058622,0.075131625,-0.83290917,-1.0933416,-0.544995,0.37647304,-0.6161231,-0.04652919,0.784625,-0.2121181,-0.66827506,-0.54741985,-0.9467142,-0.46272105,2.187203,1.1491641,-1.1046643,1.7898747,-1.2138237,-0.18378112,-1.120898,0.35305333,-0.4648984,-0.46178734,-0.7516658,-0.98961073,0.8231117,1.4561044,-1.7370993,0.6930482,-1.0772933,0.88551855,-1.2395235,0.042078253,-0.06620804,0.5246298,-0.2063031,-1.2203759,0.62929094,-0.97288245,-0.72325134,0.27112538,-1.0082047,0.61622566,0.22926526,1.3091189,-0.09168876,0.601992,-0.67000467,1.294161,0.56253,-1.2849169,-1.6793511,-1.357268,-0.65207875,-0.86389947,0.09842589,-1.0100421,1.2869914,0.4953671,-0.9066101,-0.108574726,-0.5778573,-0.09753837,1.0192454,1.0603999,1.7607304,0.9570698,-2.3060782,0.42565963,1.9681672,0.52892965,1.140567,1.4885077,-0.5531966,1.4363956,-0.8804573,2.0313082,1.1580195,-0.41416442,0.8999042,0.30904606,-0.99869144,-0.93420535,-1.354379,1.9986641,1.275253,-1.0755537,-0.48576528,1.6946521,1.0914577,-0.31518683,-0.5029767,-1.8738359,1.2271698,1.5186754,-2.4020343,1.9514183,0.66655904,0.07516912,-0.68067604,-0.06470409,1.412414,-0.7519976,0.7517757,2.3984864,-0.9344322,0.50753886,-0.7802814,-0.8694683,-1.5949403,1.0338706,-0.79463977,-1.0613078,0.15266135,1.6402025,0.47871113,-0.3247833,-0.9532527,1.415009,-1.0651145,0.71376956,0.019186541,-0.099199355,-0.30286014,0.20958258,-0.20430373,-0.24367468,-0.9586993,0.34753078,-0.6380537,-1.1178097,-0.5877142,-0.22108974,0.48042342,0.8355705,-0.42329204,1.2884146,-0.9214591,0.35647848,-1.8316227,0.40482134,0.2260162,0.71683115,0.9643396,-0.7156745,0.58494544,-0.07701702,-0.5916163,1.8070769,-0.75846654,-0.37780598,1.9521341,0.89496416,0.67388445,0.6117914,1.089516,1.4867572,-0.5334117,1.3845097,-0.10012954,-0.90083814,1.9141481,-0.43640867,1.7845222,-0.5463699,0.9995795,0.19059984,0.3494048,-1.9955975,0.5552847,-0.05270033,0.4002846,-1.3308697,-0.64028776,-0.29964188,0.735146,0.44463682,0.9669412,0.053678468,0.037903503,1.2624604,-0.42806008,-0.6162244,0.059373405,0.03916803,0.16572753,-0.47661474,1.2941539,-0.77865964,-0.043885272,0.30739266,-0.24196346,-1.264467,-0.26966682,-0.49680868,0.004544799,-0.2241318,-0.96607894,-0.06397361,-1.4716083,1.0078831,-0.3117707,-1.3755628,-2.108788,0.7576396,-1.9075708,-0.86379015,-1.016373,0.23573835,-0.011979292,0.22452177,0.18651815,-0.72602624,0.53648204,-0.1084809,1.4676316,-0.7954644,-0.76071966,-0.90735346,-0.22192945,-0.8510093,-0.5367967,1.2041641,-0.69566107,-0.1084363,-0.79400194,0.5207208,0.40037736,1.2442259,-1.209081,-0.5849597,0.6702323,-2.1352026,1.2583443,-0.38757974,0.49722612,-0.4933149,-0.25578004,-0.7119688,0.039541636,0.35716453,0.090258345,0.92997,-0.9049115,0.58101153,1.3663279,-0.61010885,0.30027962,-1.9327774,-0.9243403,2.2195337,-1.0716149,0.25915304,-1.0901765,1.4279121,-0.3778016,-1.0520817,0.43534285,-2.6506727,-1.1127255,-0.7981736,-2.2353694,0.22589184,-0.6388561,0.5124492,0.8063407,-1.1019117,-0.13271046,0.7695933,0.37419182,0.5636898,0.42016333,0.24006377,-1.5010499,1.1818742,0.12150149,0.19114731,-0.8241442,-1.1208003,-0.12922,0.22523667,-0.36672747,-0.8663002,2.8421974,1.9619495,0.90062106,-0.6946342,-2.2212026,-0.33408657,0.092940114,0.10576287,0.09111326,-2.2040777,-1.0926234,0.38126448,-0.47294086,-0.6699698,2.37862,0.22625583,-0.85693336,-0.005634853,1.2619648,-1.1904788,-0.53121066,-1.0008397,-0.028593417,1.2507602,-1.5988661,-1.0793554,2.3901799,1.8684012,1.3000902,1.1198612,-0.8044218,-0.9823862,-0.32253823,-0.3574469,-0.45634317,0.94080347,-0.9784675,-1.1564007,-0.005296491,-1.1012392,-0.86750376,0.44855928,1.2958248,1.2264339,0.2751729,1.2766411,0.20674376,-1.9860369,0.43048763,-0.5786948,1.3803909,0.19253188,-0.97945195,-1.3209721,-0.22583278,-0.25395223,-0.76907337,-1.5481895,-0.12805915,0.8630045,0.028206408,-1.3984933,0.2579424,2.4789314,-0.5082879,1.0059698,-1.0461024,0.55236495,0.09865244,0.48725116,1.3241906,-0.8604164,0.24931656,0.6707383,-0.45289138,3.1314561,0.8396167,2.3237045,0.15489444,1.8699323,-1.0231414,0.5591377,-0.2683659,0.6183992,-0.56312907,0.68403506,0.3720198,-1.1789333,0.14823103,-0.32186267,-1.5110049,1.4656602,-1.2475541,-1.2497402,-0.6247267,0.26566324,0.0149550075,0.9309464,-0.020631062,0.5522576,-0.04391206,0.52428585,-0.32317206,-3.3095477,0.38599524,0.3330692,-1.586986,-1.207142,1.0934061,0.06077129,-0.88841796,0.76843137,-0.8563656,-1.0681362,-1.030773,0.9198976,-0.5870481,-0.37522334,-1.4148512,0.2808486,1.2063007,-0.2186349,0.67546576,0.8262283,2.9508874,-1.3495442,0.570593,-0.43667117,-0.43035856,0.29009137,-0.48266107,0.9580031
Bortezomib,1.5595839,-0.13559008,-0.9534642,-0.5169265,0.5923935,-1.3713187,0.057633292,-0.48286906,-0.32229242,-0.51937425,1.0904148,0.79730415,-0.21421017,1.4611658,-0.93807703,1.0191249,-0.68279386,0.13399184,0.66455376,0.48141983,-1.8148023,-0.75962996,-1.0418168,1.585888,1.4677166,-0.0650243,0.5860966,0.94424963,-0.4170521,-2.2810955,-0.12606733,-0.47778752,-0.8336844,-0.6499997,0.77170604,0.26253822,0.8612868,-1.992837,-1.0246923,0.73570865,-0.5319702,-2.0591257,-0.05751728,1.8816541,-0.35857618,0.037586465,-0.31308976,-0.8572814,1.3987862,1.270456,-0.34710738,-0.22553428,0.11150668,-0.1419486,-0.08145613,1.1363988,0.47757357,-0.58051705,1.1688737,0.38482136,-0.082280345,1.6775142,-0.8704098,1.717981,-0.84103036,0.10814093,-0.83239806,-0.29982105,0.5521046,1.3785572,-0.18122046,-1.7654998,2.2701657,-1.255944,0.8296998,-0.103498764,0.38245583,0.52794206,-0.3218757,-0.26221588,0.9327853,1.0620127,0.31869996,1.2824973,-1.1921705,0.8812501,0.26660594,-0.6955546,-0.3262208,0.7860713,0.5785372,-1.6963909,1.3629644,1.5023515,0.16951449,0.80254364,0.24923952,-0.6705578,1.7975146,0.74076754,0.44582376,0.34691465,-0.2548688,0.14337362,1.9033114,0.21122637,0.015469799,0.3423279,0.33008662,-0.6454523,-0.1176326,-0.5265763,-0.14368756,-0.3766702,0.27139428,-1.2644935,0.7950561,0.29283231,0.66254485,0.12302465,-1.397822,-0.5881713,-1.2694198,1.9451686,0.69958854,-0.34839386,-0.040660884,0.06864691,-1.4691343,-0.6803705,0.34098282,-1.5167761,0.6762409,0.5437195,-0.40884858,0.7144282,1.0773715,-0.40645444,-0.7118524,-1.2936592,-0.38920373,1.9010301,-0.722007,1.0529374,-0.42236978,-0.831294,0.42771855,-1.2528123,0.90607846,-0.008536879,0.6197161,-0.06024856,1.126353,0.39906362,2.5789711,-0.592911,4.6070714,-1.5284159,-1.4853476,0.27414802,0.668336,-1.1810324,1.372174,0.8641732,1.6888597,1.0279181,1.1865518,-0.5231434,-0.24087077,0.94156516,0.0770775,0.2231419,-0.611239,0.5147402,1.0663068,0.31688058,-0.212814,-0.47447753,0.75250906,-0.05527406,0.20157935,0.15646887,-1.6814593,-0.71359605,-0.96555316,-3.0064762,0.48826075,-1.1254842,-0.704496,-0.86424327,0.20881389,0.09307786,-0.00595378,-0.82344246,-0.44995502,-0.91887784,0.6955069,-0.63968587,1.8252456,-0.13612154,0.5241322,1.3356559,0.27285102,-0.7078045,-1.126163,0.3942485,0.9556322,-0.5933739,-0.91268945,-0.50726783,0.020141426,-0.629588,-0.06812786,-0.11434714,1.8943478,0.799905,-0.85572886,-1.7263066,-0.6694717,0.8186128,-0.93609273,0.77893156,0.99711156,-0.5404842,-0.6879747,1.869691,2.4534342,0.10207086,-1.4481779,-0.16554971,-0.12865031,-1.5519181,0.52310604,1.6186266,0.016402207,-0.48602483,-1.2789068,0.14829822,1.1449641,0.6617995,0.70581776,-0.15769811,-1.075894,1.3341982,-0.81209147,-0.31259194,0.78831863,0.11305033,-1.3982276,-1.2995726,0.0665822,-0.50451064,1.7179476,-0.6466197,-0.5393697,-1.2072078,-0.92195535,-0.9137173,1.4505852,0.07635677,0.45539114,-1.0314837,0.36063477,2.4027734,-1.7612914,0.14332697,-0.77088296,-1.6099231,-2.388741,0.29061213,-1.0244713,0.39277166,0.35319597,0.25113085,0.25260788,-0.3952185,0.5279823,1.3411168,1.6438328,0.8462651,-0.28306985,0.62103593,0.094541915,0.77296764,2.1044376,1.324921,-0.68052745,-1.319948,-1.0739161,0.72528535,-1.1085507,-0.2748757,0.99858797,1.629539,-0.7431729,0.64256275,-0.3987763,0.71512204,0.23837309,1.0326154,0.0003421701,-1.28288,3.5065517,-0.5520831,1.2397339,-0.1429391,-0.30815893,0.07047431,0.5140464,-0.65519774,-1.0911899,0.43430537,-0.36634916,1.1642848,0.15929788,0.8560434,-0.43442276,-0.44804522,2.0319195,0.38727504,-0.8566014,-1.2759244,0.07946304,0.97546756,1.3770936,1.868414,-0.40161517,0.08255641,0.3652547,-0.3106014,-1.2888247,0.14077994,-0.747538,-1.4841859,-1.2326843,-0.101576544,0.41646144,0.21474892,-0.26067767,0.073419146,0.73777604,0.11492838,-0.97041184,0.7439537,0.3389535,-0.1875673,0.7603855,1.4807525,-0.4870046,-0.94189733,0.68366575,0.4177791,-1.9255737,0.7830787,-0.07158083,-1.4319494,0.14778782,-1.179412,0.62575525,-0.9654203,0.051839005,0.05906662,-0.78952307,0.34991947,-1.1083417,-1.9844728,0.8665335,0.07302429,-1.0509154,1.4057055,-0.7376683,1.3424758,-0.6529838,0.540603,0.048485525,-1.2529793,-1.4624908,-1.4048777,1.4561654,1.6390458,-1.2272156,-0.49627,-0.026107537,0.10471627,-0.12939073,-0.49056107,0.8326162,0.666016,0.23034814,-1.1696066,0.4097338,-0.50397956,-1.7147952,0.5753792,0.018503137,0.7550582,1.3024442,0.76288074,0.61023355,0.7521763,-0.758571,0.95304656,0.75518954,-0.76795155,-0.23563567,-1.1025131,-0.9484256,-0.6984173,0.16581787,-0.25984526,0.064872466,-0.17883565,-1.3339322,0.6137645,0.6685738,1.5296967,1.2764462,0.9091211,1.7676057,-0.033609517,-1.1128124,0.04726824,1.7184885,0.1625832,-0.70990694,-0.102080524,-0.8340934,0.9388212,-0.4970482,2.061706,0.78001666,1.0477686,0.86345655,-0.75811815,-0.039940592,-0.49150357,-0.39843798,0.94459563,1.0128928,-0.052471302,-0.18556154,-0.044306856,1.6396445,-1.2162195,-0.29551893,0.46889007,0.049536318,-1.3510967,0.0063875536,0.35963562,1.0243577,0.9671266,-1.0545312,0.59961355,1.4351759,-1.7084965,-1.2802019,1.8528306,-0.88779116,0.21554804,-0.71060264,-0.94946927,-0.16327827,0.61229384,-0.8785822,-1.1315392,-0.9557167,0.97859496,-0.73696434,0.08684499,-0.52424645,0.77910274,-0.05207255,-1.314167,0.26410452,-0.18844059,0.82475,-0.023912197,-1.2956389,-0.69767064,-0.67423093,0.3654962,-0.90765095,-0.5712729,0.002531294,0.0133145135,-0.068805754,-0.159399,1.9301575,0.42449713,0.6270777,-0.059234772,-1.6956829,0.42741194,0.77140784,-0.36025265,0.21421404,-0.80311275,0.19485335,1.6885118,-0.3716472,1.8732067,0.53725743,-0.57892615,2.3937902,0.28411037,0.30750415,0.2513918,0.0080252085,1.609064,-1.6868044,0.9229825,-0.51214665,-0.6512854,0.5828019,-1.3139422,0.80322486,0.30330232,-1.3760263,0.7519844,0.123909645,-1.1294204,0.063278764,-1.134845,0.045339894,-0.8237667,-0.25366622,0.33776742,0.744867,-0.8471387,0.96024716,1.3679328,-0.044676367,0.8404176,0.7837633,-1.5527588,-0.120475404,0.14126503,-0.3210512,-1.6120902,1.5201255,-1.552995,0.19411452,0.018187128,-0.28208598,-1.4518944,0.40815106,-0.7481794,0.8470185,-1.1336999,-0.6303904,0.64388055,-0.69959754,0.37111825,0.04748517,-1.0635179,-1.4215122,-0.06997113,-1.5422121,-0.122431405,-0.09615373,1.2349684,0.9303063,-0.086493276,-0.4037806,-1.2296997,0.5720836,-0.04113435,0.46213305,-1.0303082,-0.32531348,-1.2317021,-0.44641158,-1.2477375,-0.6745227,1.285153,-0.61324555,-0.94742894,0.3071329,-0.6166807,1.0183443,-1.6113292,-0.449033,1.7703575,2.0925727,-2.1865346,0.3285733,-0.74791574,-0.7459497,-0.48164454,-2.3614159,-0.44222364,-0.043550175,-0.72050405,0.24140869,1.5060984,-1.1159368,-0.33090284,0.63426876,-0.20017837,1.453381,-0.5053786,-1.3163153,2.0023856,-1.3419883,-0.26500976,-1.0616447,0.1508878,-1.5352305,-0.99070936,0.60525227,-1.5964653,-1.3198601,-1.3777405,-1.2984644,0.14094588,-1.1814213,0.17466997,-0.9158135,0.23870271,0.12166947,1.6382799,0.9391066,1.7823036,1.1267029,-0.35365093,-1.0760667,0.62915075,-0.65333873,-0.0038817422,-0.20608993,0.033407744,0.5358296,-1.2630559,0.23648065,-0.64589703,0.4205918,2.2003136,-0.03577217,-1.2776203,-0.5221121,0.40225542,1.4701915,0.25246996,-0.2865348,-1.0932566,1.2583601,0.028564597,1.0346897,-1.131776,1.9280204,0.30792525,0.5791445,1.7322885,0.5974594,-0.9327164,-2.3421893,-0.49993646,-0.594518,0.6692737,-1.7603815,0.050846092,-0.44143233,2.4128697,1.0795523,-0.09091683,-0.5185896,-1.4723284,-0.11756088,0.7748411,-0.4594256,-0.19815333,-0.852884,-0.38035372,0.8406986,-1.3990161,-0.9986438,-0.99714905,1.725916,1.2038755,1.6680063,1.0219314,-0.21576086,-0.45580715,-0.78265375,0.3539398,0.052105233,1.2064307,-2.0414026,-0.6600339,0.9991181,-0.989047,-0.39711374,-2.0277548,-0.09161229,-0.33207795,-0.04673827,-1.8417277,0.4719526,2.7971418,0.11652038,0.56560695,-0.7299053,1.3665383,0.5258593,0.12036089,1.6912377,-1.5837048,0.30159396,-0.79202515,-0.6847476,1.7899848,-0.24484584,1.9917287,-0.021818576,1.2620552,-0.052693766,-0.4464117,0.16269644,1.9090645,0.67203104,-0.09446922,0.20192476,-2.6243067,-0.5568102,-1.3889035,-0.9279801,1.3700081,0.37844488,-0.59258944,0.8003753,1.4796199,-0.6761418,0.4240325,-0.44124356,0.026056292,0.27644688,0.62614876,-0.13492368,-3.9013586,-0.044288646,-0.733474,-1.4732538,-0.71613914,0.2563146,0.030475078,-1.9586309,1.6006608,-1.3426305,0.3392171,-0.00324357,0.85573983,-0.6952995,1.2561017,-1.2026299,1.6225265,0.5271167,-0.8598944,0.5896621,-1.6334738,0.28515077,-1.3073081,0.9313837,0.67842996,-1.3109446,-0.44435003,-0.48862687,0.43727994
Ixazomib,1.9947299,-0.2516033,-0.84571433,-0.4509875,0.25517216,-1.3333938,0.30590403,-0.23310193,-0.45961288,0.038601533,0.37349716,1.0284084,0.08639981,1.2541066,-0.5924938,0.551556,-0.95878214,-0.10449477,0.7810971,0.64227486,-1.8040627,-0.77393436,-0.46863383,0.9977201,1.3679203,0.17832986,0.8855739,0.9625144,-0.64214134,-2.0634336,-0.1556711,-0.8268114,-0.79006356,-0.80195105,1.015747,0.5995859,1.0433052,-1.544626,-1.3166873,0.27239624,-0.6933012,-2.5013204,-0.088712096,2.722188,0.073051296,-0.27979696,0.19134529,-0.8245207,0.9681647,1.2310275,-0.2492123,-0.026945874,0.07505393,0.44858494,0.16570233,0.6190056,0.30639026,-0.9022745,0.9419333,0.4326348,-0.32738188,1.7657492,-0.1424784,1.1171712,-0.4261855,-0.5062665,-0.7599258,-0.39299232,0.44410765,0.7449747,-0.14452164,-1.3344116,2.5999289,-1.550408,0.4337798,-1.0295159,0.22118981,0.60921854,0.003891172,0.7564929,1.7940083,1.112247,-0.071148396,1.2662631,-0.42998624,0.9550421,0.5651503,-0.24042198,0.31105152,0.70004255,0.5148968,-1.1934791,0.69906205,0.62866205,-0.17183605,-0.092412025,0.40880713,-0.7057099,1.8044178,1.1477519,0.056683034,0.35231957,-0.6549698,0.035299342,1.3325121,0.25662768,-0.099097,-0.04077153,-0.26004547,-0.27452937,-0.03814832,0.12940258,0.2590779,-0.4450995,0.7371186,-1.2882259,0.4316389,0.2124279,0.6040384,0.35198605,-1.2380074,-1.2288178,-0.603366,1.9944202,0.14591591,-0.21160352,0.8689755,0.765387,-1.3752573,-0.37890837,0.24451263,-1.5583467,0.28031254,0.104334086,0.31515053,0.28377774,0.7829659,-0.14201486,-0.6855939,-0.8075192,-0.086218566,1.8560773,-0.2603154,0.97148144,-0.41833413,-0.93483824,0.60309976,-1.6060039,0.93303275,-0.07971854,0.26617154,-0.25311628,1.9043438,-0.17604482,2.1726408,-0.7372424,4.5558977,-0.9526167,-1.6028692,0.64608014,0.5897706,-0.3403959,1.125933,1.1196258,1.6457843,0.4362265,0.84732264,-0.32335478,-0.20655474,1.2263017,-0.26078188,1.0887595,-0.8972156,1.1679901,0.21627265,0.5729516,-0.89054686,-0.9585664,0.22826287,0.21795906,0.32712975,0.1437747,-1.0339857,-1.2619013,-0.954155,-2.6747828,-0.32715178,-1.0840552,-0.047005806,-0.18546157,0.6747249,0.323722,0.49143568,-0.5925344,-0.6802405,-1.0426576,0.8120682,-0.19241837,1.8160714,-0.14722393,0.6113815,1.9014678,0.8626354,-1.2176335,-0.47343725,0.82901853,0.678447,-0.89436543,-1.0380678,-0.74858904,0.21034107,-0.7023045,-0.3654084,-0.5517257,1.678999,0.6434422,-0.75868255,-1.3550607,-0.45986164,1.3094414,-1.4002881,1.201975,0.5235059,-0.660557,-0.49842742,2.1227765,3.318868,-0.18087694,-1.4326154,-0.23159954,-0.060084242,-1.2653041,0.51945066,1.6346722,-0.12515774,-0.52832985,-1.1511288,-0.17171969,0.3466775,0.82350427,0.33921203,-0.23810987,-1.3287333,0.85942316,-0.8070819,-0.1528293,0.66625875,-0.63449854,-1.5877435,-0.8012905,0.10720692,-0.4061147,1.5021963,-0.25422412,-0.33418474,-1.8001664,-0.71600586,-0.9707431,1.5268451,-0.6354237,-0.5074627,-0.82802945,-0.2821084,2.2105777,-1.3269306,0.11507034,-0.75550586,-1.6214054,-2.4058414,-0.025768489,-1.095008,-0.27421722,0.12747191,0.7034023,0.46714878,-0.0041562817,0.823983,1.5916362,2.1028214,1.2948105,-0.2139004,0.250992,-0.53783107,0.9836785,1.8280792,1.7802925,-0.8771422,-1.9266964,-1.3368111,0.92427087,-0.7218085,-0.5995638,1.2078643,1.3987378,-0.6100737,1.2010999,-0.048047014,0.763338,0.93283683,0.53916097,0.26936212,-1.0784369,3.1488407,-0.36759448,1.0216099,0.38063267,-0.15696926,-0.6003972,0.9343678,-0.40668908,-1.2216272,1.2666495,-0.23980294,0.5417542,0.007827082,0.71645606,-0.48394546,-0.9339338,2.2124777,0.9280285,-0.185816,-1.1614186,-0.22169566,0.7612919,1.5109799,2.4515474,0.019247979,0.6340445,0.43069318,-0.42870045,-1.0845526,0.30402845,-0.68559825,-0.91605407,-1.5498018,-0.15220286,0.3906455,-0.61252624,-0.11665427,-0.002457649,0.71934855,-0.22844753,-0.29966423,0.74438727,0.5782579,-0.44371668,1.5286779,2.0865655,-0.15343814,-1.1894022,0.98498493,0.21614611,-1.529744,1.0655928,0.2542933,-0.8018469,0.44558612,-0.41556796,0.7160082,-0.85219234,0.016699977,0.08462505,-0.6531315,0.47955692,-1.4412501,-0.7610561,1.6457927,-0.13087568,-1.1251692,1.5739975,-0.2350607,0.7960932,-0.45295286,0.4868959,-0.17676608,-1.1437705,-1.0119131,-1.9123869,1.8860712,0.92967063,-1.7401175,0.016945478,0.5116737,0.3418384,-0.149691,-0.68352973,0.6673138,0.7411308,0.65317374,-1.5932046,0.6579195,-1.1494881,-1.8448442,1.0548124,0.11248481,0.6118195,1.315618,0.8530847,0.54577166,0.9813149,0.2561462,0.49513468,0.72405624,0.37648115,0.07505903,-1.28973,-1.1972831,-0.756485,0.21939155,-0.25508684,0.022716617,-0.14054875,-0.2143493,0.3382103,1.0761708,1.8300233,1.165617,0.64310086,1.6056507,-0.28434384,-1.33387,-0.1889049,1.2216814,-0.09492995,-0.49867082,-0.5047676,-1.1706027,1.0267856,0.035316408,1.8309032,0.69429654,0.010930931,0.86620474,-0.5369101,0.38929826,-1.3877443,-0.9630205,1.3281202,1.2217222,-0.17022333,-0.24562389,-0.3144959,1.6610395,-1.4338444,-0.13703363,0.14666925,0.4404651,-1.0239093,-0.7603161,0.58791536,1.2608066,0.95102215,-0.9887871,0.0047458545,1.7192156,-1.3803334,-1.5688399,1.8763165,-0.2748313,-0.2576112,-1.1672518,-0.8519693,0.47952712,0.8915943,-0.6436047,-1.2772642,-0.472085,0.7454301,-1.1438413,0.33302224,-0.64864546,0.2533144,0.06781247,-0.8099974,0.09546281,-0.6368008,0.68509,-0.35574678,-1.2391822,-0.5575393,-0.32973596,0.478915,-0.55620784,-0.20883258,0.14067394,-0.12855206,-0.4178052,-0.102111146,1.8530687,0.4132062,-0.26390553,-1.1953988,-1.1515322,0.24126428,0.5794295,0.16364907,-0.06813495,-0.74188197,0.078278445,1.4526161,-0.16378121,2.0175295,0.63920057,-0.54804826,2.3362527,0.15462773,1.4043639,0.2705405,0.019435963,1.473118,-1.4830165,0.4868892,0.18479973,-1.4449877,0.3476021,-1.0328428,0.4096508,0.35729772,-1.4641912,0.8817051,-0.52392614,-1.1951187,0.5651987,-1.0497913,0.011618864,-0.75956565,-0.21023731,-0.2798513,0.69805545,-0.2104742,0.47072122,1.5959579,-0.18628448,0.76498836,0.75262207,-1.5633291,-0.471643,0.49688557,-0.22632419,-1.051422,1.6716737,-1.218738,0.15064327,-0.38352334,-0.14310698,-1.2154057,0.4898118,-0.25889388,0.66588116,-1.4703017,-0.39884776,0.7942161,-0.64571434,0.10639067,-0.13108249,-0.7649182,-1.3453947,-0.44433713,-1.0935366,-0.11144431,-0.14128149,1.4662522,0.046607018,-0.3583388,0.11029452,-1.4759605,-0.2496842,-0.16998124,0.8189371,-1.4156867,-0.002814021,-0.56537664,0.021113394,-2.036127,-0.6113706,1.2477452,-1.4948514,-0.4540588,0.6113919,-0.15319797,0.3266269,-1.564391,0.7831526,2.0801888,1.6812322,-2.6597579,-0.35709554,-0.35585064,-0.24179325,-0.1856956,-1.9218649,-0.13808528,-0.27591878,-0.57933295,0.58058167,0.9056585,-0.65474176,-0.44371152,0.24589585,-0.33706072,1.273072,-0.8165497,-1.2074075,2.2858062,-0.35857975,-0.015140686,-0.9081573,0.6335227,-2.0124366,-0.3104071,1.28145,-1.636662,-1.584841,-1.2686279,-0.46724504,0.15122232,-1.0143776,-0.16686232,-1.4406354,-0.23681645,0.41432467,1.2426735,0.42316878,1.1436373,1.062362,-0.5962333,-1.8466737,-0.34055844,-1.1182485,-1.0812337,-0.6823936,0.58295363,-0.015680315,-1.7354767,-0.38326108,-0.4056376,0.9212479,1.6778439,-0.17857547,-1.3191723,-0.58289975,0.6227287,1.0360188,0.009769425,-0.19191745,-1.3585,1.2968073,0.8151197,0.30645716,-1.1728985,1.4586323,0.54499966,0.63253874,2.0603,0.10252213,-1.3509462,-2.9424293,-0.48879042,-0.6419367,0.63860583,-1.7963427,0.49498525,0.42695057,2.0641007,1.1648582,-0.04239546,-1.114613,-1.5024279,-0.1457026,0.59889776,-0.1463148,-0.0779593,-0.8197091,-0.35415053,0.74020755,-1.3616068,-1.0522422,-1.400461,1.2046409,1.0851158,0.902518,0.7663817,-0.027254486,-0.05678296,-0.7587476,0.54421866,0.27200308,0.57394403,-1.2856648,-0.51744026,-0.13768859,-1.1772578,-0.2828478,-1.772613,-0.58915675,-0.39270893,-0.70882994,-2.047499,-0.09728859,2.6170447,0.1654117,0.43891615,-0.79774576,1.6009152,0.6106025,-0.21582614,1.7817459,-1.0335007,0.3893155,-1.0435593,-0.40457866,0.76415133,-0.6276755,1.471828,0.3863088,1.2887635,-0.42684633,-0.022563225,0.087396786,1.9297726,1.3794627,-0.51518995,0.3656665,-1.966573,-0.7032664,-1.4102068,-1.2369697,1.2621104,0.25330383,-0.26364306,0.58172834,1.4164376,-1.0891908,0.098599955,-0.5020975,0.2857689,0.58599526,0.1281142,-0.597514,-3.8093257,0.2646323,-1.19879,-1.1284599,-1.1495769,-0.12731561,-0.13490167,-1.873302,1.9384816,-1.526865,0.2274193,-0.5965139,0.46047625,-0.10408877,1.7713716,-0.9491847,2.2602582,-0.4620672,-0.8885387,1.2063037,-1.9061412,0.2875144,-1.2741036,1.3218908,0.32354093,-1.5286522,-0.511621,-0.86345756,0.7487568
Ixazomib citrate,0.78315663,-0.20609093,-1.4165785,-0.6510663,-0.02950549,-1.7929697,-0.44203845,0.17014708,-0.8980389,-0.110977754,-0.5084433,0.6212719,-0.7021786,0.33549243,-0.6472566,-0.27039158,-1.0817454,0.58155864,0.93873185,0.99073005,-1.853754,-0.4976598,-0.45675156,1.2989703,0.34781247,0.06434694,0.7058582,0.9139853,-0.21051858,-1.4527335,-0.40338418,-0.401917,-0.7930818,-1.1559368,0.76365906,0.13033508,0.8931693,-1.0228502,-0.6523921,0.48470417,-0.5639336,-1.8499103,0.34920093,2.5300996,-0.03534412,0.570948,-0.57693624,-0.4558439,1.0943716,0.36523867,-0.45210862,-0.17302786,-0.10701307,-0.4146257,0.7195448,1.013547,-0.13400576,-1.2678306,0.082439825,-1.1092281,-0.10615545,1.8045614,-0.16371801,1.2910031,-0.97381604,-0.6122405,-1.0720011,0.36130792,0.8993852,0.5758903,0.23696205,-1.9257445,3.233428,-1.9600102,1.0143757,-0.03570512,0.4592014,1.0449253,-0.3147286,1.0758133,0.8908333,1.1693834,-0.003404585,1.5819578,-0.3387153,0.90703887,0.5775414,-0.9145918,-0.34118173,0.16715667,1.1437463,-1.0931011,1.3037952,0.72114414,-0.2740745,-0.47294357,0.09455349,0.7838397,1.392224,0.44420967,0.05221305,-0.5593345,-0.61892205,-0.13193372,1.7292167,0.45569924,0.5704303,0.58898586,-0.19815674,-0.08910537,0.13836287,-0.04145142,-0.4690403,-0.80282325,0.71982396,-1.3201883,0.22551492,0.334931,0.70998204,0.014791306,-0.836098,-0.7552176,-1.3024395,1.2281933,0.13046768,0.3226799,0.27569407,0.34975156,-0.6509532,-0.57308155,1.1246585,-0.8157862,-0.043829318,1.096741,0.09063238,1.1709613,0.39868826,-1.0946454,-1.0690811,-0.5277958,-0.33345348,2.0648572,-0.90743804,0.90306264,-0.3793361,-0.68699086,0.9770389,-1.4038357,-0.16267522,-0.1387498,0.42287228,-0.9441258,1.1913393,0.009302465,2.6987722,-0.32776785,4.128008,-1.3801092,-1.7132776,0.37116057,0.6631825,-1.1287452,0.6510825,1.3578479,1.6042593,0.8503818,0.81285584,0.13184394,-0.079864725,0.43697104,-0.80691326,0.40005773,-0.27710205,1.0580937,0.81580067,0.45997974,-0.757263,-1.1695409,1.5213125,0.16757947,-0.39735672,0.23008014,-1.8264911,-0.39096102,-0.38332024,-2.7832756,-0.16529384,-0.4814073,-0.7215998,-0.6258815,1.1676241,0.11677707,0.6998163,-1.0994985,0.06055942,-1.4452451,0.9446108,-0.21271057,0.84841245,0.16921501,-0.3647508,1.9108864,0.20795162,-0.5039636,-1.2123852,-0.9160897,0.6106659,-0.53175735,-0.40487885,-0.53718007,0.13952765,-0.23991583,0.22789066,-0.4944773,2.3550863,-0.012458435,-0.3133968,-1.0429438,-0.8295789,0.36273018,-1.3100435,0.995555,0.70943046,-0.0850024,-1.1983492,1.6785368,2.169274,0.08880701,-1.5657815,0.18105061,0.635047,-1.0139582,0.9439401,1.190875,-0.15320769,-0.013724098,-2.2151644,-0.42356777,0.73064214,1.1565663,0.4199943,0.44650683,-0.89233077,0.93101496,-0.7886714,-0.74002695,1.0134411,0.4428983,-2.0456734,-1.2185361,0.3363023,0.3019531,1.0536457,-0.75712705,-0.48711437,-1.6263556,-0.69553494,-1.4036863,1.1464995,-1.317117,0.64100677,-1.0711731,0.23580891,1.9176862,-1.3176488,-0.67259467,-0.4777734,-1.0846614,-2.222475,-0.37920195,-1.111927,-0.28657782,0.37552664,0.6187995,-0.099046566,-1.2036402,0.104343064,1.879343,1.0455524,1.1260933,-0.20740254,0.29904947,0.1968228,1.053951,1.5137572,0.70178914,-0.30687985,-2.1618896,-0.6987103,0.8758874,-0.6216972,-0.6700929,0.1725231,2.0021594,-0.040114176,0.84465694,0.017702496,0.96058786,0.95205206,1.1042019,0.32769558,-2.2027457,4.077883,-0.032713413,1.6749591,0.015201956,0.11590309,0.52708626,1.3641102,-0.005005947,-1.4710468,1.2734481,-0.04767027,0.5317343,0.36583707,0.40274668,-0.26850033,-0.17297533,1.996725,0.52628934,-0.9993429,-1.943404,-0.78865653,1.8728544,1.2515682,2.1007266,0.28328732,0.5552826,0.96294886,0.46279326,-1.502536,-0.047844775,0.3484904,-0.7245795,-1.6762544,-1.1826956,0.4866332,-0.59907776,0.34732375,-0.72475654,0.017220043,-0.56901944,-0.008711489,0.8115656,0.010793513,-0.062045053,0.2708592,1.6182939,0.36565167,-0.8912434,0.40633756,-0.184063,-2.126656,1.0111955,-0.45912045,-1.3464984,0.47066408,-0.10823192,0.740863,-0.80007845,0.2433842,0.43569538,-0.5743354,0.100972176,-1.199712,-1.10485,1.6567799,-0.25764295,-1.049012,1.9161557,-0.4389242,-0.046428043,-0.9725878,0.62384427,-0.07687135,-0.8522629,-0.4085361,-1.0964652,1.7813768,1.4838481,-1.5749792,-0.35467044,-0.4140546,0.033264056,0.32413673,-0.7961575,0.7721404,0.9012104,0.106828146,-1.427241,0.4181312,-0.30962852,-2.258897,1.0946783,0.116460316,0.8540114,-0.110598765,1.0154122,1.1552386,1.2353559,-0.67789245,0.8225032,0.67821085,-0.6289957,-0.42978162,-1.5561805,-1.2777508,0.14220653,-0.20955828,-0.31276402,0.56835055,-0.41599214,-0.23612408,0.30474204,-0.16837712,0.9801294,0.6416324,-0.022272373,1.670015,-0.041506942,-1.2029865,0.1963714,1.3657521,-0.12428749,0.40599543,0.20091824,-1.2479976,1.1523458,-0.51346284,2.033471,0.68750054,0.44526476,0.9468718,-0.4354698,-0.11628131,-1.7492073,-0.24978122,1.0637443,1.069875,-0.3695553,0.50968665,0.03318989,1.6431297,-1.1784567,0.28248915,0.0691091,0.28356585,-0.3468632,-0.72549814,1.3930522,1.2071111,0.13693585,-0.7827569,0.54242694,1.4535896,-1.763131,-0.68644714,2.4068947,-0.36755577,0.13577312,-1.4807292,-2.0489895,-0.18802737,1.351981,-1.1750686,-1.2693082,-1.1272533,1.1706185,-0.59258294,0.10976026,-0.29987213,0.58441764,-0.356992,-1.3334036,0.44092533,-0.8390835,0.42222872,0.076422915,-1.3431171,-0.95164245,0.16151981,0.47539815,-1.3499886,-0.4239926,0.64157605,0.40858486,-0.665088,0.52208656,1.626619,0.062639184,-0.6138349,-0.052075397,-0.63309956,-0.036011968,0.71765625,-0.18736915,0.52492833,-0.6113162,-0.27743652,1.3636659,0.03844658,1.2028135,0.22945614,-0.44460425,2.5547185,0.4514746,0.7534723,0.5379676,-0.24868035,0.55288076,-0.9857417,0.8183129,-0.2433674,-1.2433114,0.6942637,-0.52281415,1.6204545,0.68311495,-1.4483025,0.45159802,-0.120308205,-1.4111112,0.13895784,-0.876549,0.3987586,-0.3625159,-0.5319977,0.015163293,0.8579309,-0.23809083,0.18280299,1.7571238,-0.15488671,1.5000917,0.28266862,-1.9342291,-0.088250786,-0.16525115,-0.16392323,-1.5888243,1.2140851,-1.386552,0.5409757,0.26711908,-0.42284775,-0.9193809,-0.45896098,-0.22462915,1.2375525,-1.9777367,-0.95123065,0.092271954,-0.47446063,0.45670336,-0.014886151,-0.5430897,-1.7415468,-0.34876588,-1.3651274,-0.07042107,0.34702557,0.9992396,-0.12052382,0.05512111,-0.35892764,-0.9140766,0.708842,-0.32360786,0.7495118,-1.092037,-0.38718876,-0.7355425,-0.8986669,-1.6305332,-0.018699355,1.0210363,-0.5959373,-0.8484332,-0.0980605,-0.21078794,0.37684736,-0.6240746,0.09171257,2.1204603,1.7899168,-1.3529679,0.21093763,-0.2140488,-0.44072026,-0.09689053,-1.378195,-1.0237759,-0.39724803,-0.21065305,0.21404131,1.294917,-1.3878181,-0.8317399,0.65831465,-0.35153663,1.8679832,-0.18677692,-0.93088114,2.3957796,-0.37852052,0.5079581,-0.5789454,0.63475966,-1.4327376,-0.31247824,0.74971855,-2.035744,-1.5959227,-0.6721885,-1.117016,0.2429056,-1.1020361,0.86511356,0.1193825,-0.028037295,0.12048427,0.8799629,0.25223252,1.4955548,1.3066308,-0.5736558,-1.7800915,0.18877517,-0.62764937,-0.6204244,-0.8146441,-0.023536507,0.30566844,-1.4733877,0.83622766,-0.5479462,1.6865191,2.2525346,0.041918058,-1.0252007,-0.91997755,0.07257067,1.0268846,-0.09361771,-0.3801348,-1.4830648,0.8832042,-0.10412482,0.12265904,-0.82439166,2.7679644,1.6758758,1.1662124,1.1732575,0.6499502,-1.685501,-1.5346107,-1.728048,-0.53001106,0.9583056,-1.2872746,0.028188542,0.20137373,2.4832406,0.61530465,-0.2889946,-0.9198636,-1.2239054,0.5140541,-0.04798045,0.03375565,-0.2663982,-0.5959663,0.63924944,1.0475568,-1.4108437,-1.6783682,-0.9199477,2.2504125,1.4915612,0.7000192,1.3356882,0.914551,-1.0049833,-0.31299114,-0.1713621,-0.004484136,0.79549795,-1.7532369,-1.2607865,0.20674293,-0.84447,-0.04301973,-1.983377,-0.41130516,0.42471978,-0.22347863,-1.8009704,-0.013950795,2.624333,0.21284331,0.6679982,-1.0661782,1.9626005,1.0904648,0.1312027,1.1090248,-1.7085663,-0.22233778,-0.3435669,-0.7013889,1.6455703,-0.6752461,2.232172,-0.26416203,1.6246725,-0.91423005,-0.43481466,-0.43480617,0.95132905,0.92267,0.22149009,-0.27283204,-1.7815392,-1.4500494,-1.2539582,-1.2832494,0.6502908,0.6893363,-1.0878686,-0.20421869,1.0657502,-0.23345965,-0.09367092,-0.9824163,-0.29405603,0.29067037,0.46336484,-0.46374717,-3.1802855,0.7305961,-1.0335046,-0.961476,-1.3491682,0.3701244,0.14752911,-1.4782014,2.0432935,-1.4503008,0.75837785,-0.20592745,1.098812,-0.71576923,0.8358914,-0.886313,1.3948523,0.35769403,-1.1394715,1.4918733,-0.91167057,1.2443746,-1.4333243,0.95561415,0.20477575,-0.6328409,-1.0007592,0.21410602,0.75768185
Lactate (calcium),1.2253746,-0.10420908,0.3303147,-0.50911903,-0.66788816,-0.8675074,-1.3128455,0.3720353,0.042883717,0.0388709,-0.2329389,0.48324916,0.2345865,0.21468247,-1.0998358,0.24135464,-0.5303459,-0.335996,1.668928,0.8887841,-1.5999432,-0.8698467,-0.6253078,1.1433259,0.58336896,0.3901056,0.5439251,2.1659343,-1.5761498,-0.9766829,-0.2821956,-0.00782409,-0.14963697,-0.013247521,1.1802831,0.08240598,0.39807513,-0.7194225,-1.1424836,-0.13695829,0.2714072,-2.9410863,-0.94038,1.738804,0.16151755,-0.23101145,-0.16086304,-1.1775082,0.2740105,0.8897798,-1.1897917,0.09341177,1.049391,0.1517261,-0.33920428,0.18933617,-0.24067602,-0.37227783,0.8835988,1.0737435,-1.2349871,1.2344463,0.467006,0.15596335,1.0195363,-0.29599467,0.14469905,0.7598773,1.1936578,0.05149352,0.04269129,-0.8676188,1.8498832,-0.2755633,0.8038244,-0.52500373,-1.0327253,0.8719669,0.70040125,1.0705957,0.89618564,0.25506493,0.47784382,0.3514433,0.3145952,1.9154944,0.5401506,-1.3673695,-0.18440402,0.106730305,-0.37431294,0.3576481,0.26798034,0.61103046,-0.16124086,-0.2546658,-0.5991198,-1.1864122,2.2991395,-0.22754765,0.03899725,1.168207,-0.75798285,0.048080217,0.7317834,1.6774682,-0.41140822,-0.7908767,0.058006044,-0.9761734,0.73161995,-0.42429888,-0.67518836,-0.031042298,0.022634739,-1.1079141,0.34858516,-0.6218272,1.3517476,0.054401852,-0.8044666,-2.4956434,-0.69029576,0.4518646,0.45232758,-0.3397352,1.3153732,0.069714755,-0.65791196,0.07031154,1.1646913,-1.3369792,0.3582669,1.1050018,0.08254691,-0.6878517,0.5218773,-0.15569662,-2.1047008,-1.3817469,-0.9411051,1.2813804,-0.6703369,1.6683944,-0.17187172,-2.1894367,1.7465782,-1.975953,1.8213984,-1.1341833,1.2410517,-0.21308988,0.94417703,-1.0620737,2.158547,-1.5221761,3.3516958,0.49771664,-1.4087632,0.9759247,1.5748894,-0.1633551,0.5900125,0.2662146,0.8315304,0.33106032,0.81721395,-0.0080543095,0.028259816,1.4842904,-0.6917575,1.3782051,-0.6684439,1.0290623,-0.73318803,0.9986093,-0.67266655,-1.3955925,0.60287786,-0.056534562,0.47920495,0.862275,-1.143762,-0.819241,-0.78327763,-1.5627046,-0.038517173,-1.7601401,-0.8373975,-0.88842165,0.9377984,-0.08123827,0.41306606,0.52378523,0.2314996,-0.04181849,-0.016098756,-0.14683056,1.6035804,-0.5083898,-0.32996333,0.78819865,1.4106593,0.21719196,0.33925664,0.33079427,-0.09465824,1.247146,0.31247434,0.33503687,0.9409231,-0.99989265,-0.3488553,-0.4970554,0.80237395,-0.23128206,0.82891524,-0.68996024,0.4176307,0.14897172,0.5964196,0.32301506,0.28565195,-0.11429945,-0.046018198,1.3941339,2.9846168,0.8723777,-1.7578409,0.60970944,-0.04613005,-0.90954137,-0.29281503,1.043709,-0.2777108,-0.47377276,0.01811679,0.88454187,0.5887982,-0.011892155,-0.47258648,0.052246924,-1.6646613,0.8012153,0.8007841,0.73674566,-0.80188906,0.33440328,-1.9476521,-1.0293832,-1.7052481,-1.2204659,1.2130878,-0.9662467,0.20754215,-2.054807,-0.29447016,-2.5725152,1.1478441,0.30686527,-0.529857,-0.46151865,0.17209046,0.77786964,0.29272047,-0.35021445,-0.72990036,-0.79775494,-1.0687175,1.9120588,-0.4187204,-1.660724,0.201168,-0.24433687,0.9947722,-0.43939254,-1.5638608,1.1280422,1.5185083,0.82354677,-0.16380928,0.45728284,-0.0880532,1.4559486,1.193606,0.104996964,-0.50826216,-0.6613371,-0.88357353,1.0463097,-0.74795413,-1.8655682,1.527155,1.0269481,-1.4714698,0.40128767,-0.36306006,0.5423473,-0.1775025,2.2026312,1.4053696,-1.3091677,2.9432786,-0.2349102,-0.6734575,-0.008824812,-1.1399361,0.13409452,1.1013255,-0.120724276,0.0964902,1.9356865,0.58241403,0.40173408,-0.32561994,0.64954674,0.40521345,0.53728473,0.12525308,0.844025,-0.22461542,0.49974546,-0.70562416,0.1299392,0.050677177,2.928644,-0.49260795,0.3867809,2.1729577,-0.15462834,-0.11208595,-1.463801,0.4289324,-0.19539827,-1.3938801,-0.4562606,1.0506133,-0.8838177,-0.49884298,-0.61206377,1.1369082,-1.0263426,0.8642458,-0.39857778,1.5140982,0.074742086,0.8771873,1.8220016,0.63373935,-0.47155055,1.1789705,0.2911741,-1.5320858,1.2249963,-0.15196326,-0.07989738,-0.1907487,0.16457845,-0.116713114,-1.2253608,-1.5370536,-0.35830536,-1.1507196,-0.21462184,-0.63278085,-0.7070969,1.8840303,0.7813926,-1.0588824,2.387474,-0.6851669,-0.6585279,-0.13969351,1.4505029,-0.47256494,-0.20196386,-0.6167228,-1.8953694,0.66672146,-0.38865954,-1.1282423,-0.5040764,-0.48954678,1.2350812,-0.3187469,0.23105694,0.94183594,-0.56649446,-0.2453522,-1.124731,0.9061543,-1.069128,-0.6879702,-0.16492793,-0.08052285,0.52073157,2.4223866,0.9640507,-0.29800376,0.22266237,-0.27050245,0.30675593,0.30684146,-0.9877965,-0.8350392,-1.3528912,-0.96113706,-1.3132843,0.98691744,-0.45757663,0.32407,0.02361346,-0.62011987,0.6672908,0.96490633,-0.18411696,0.40660226,-0.21625344,1.6192393,0.76483417,-2.1202233,-0.33822647,1.5851331,0.6085303,0.10305408,0.52258205,0.32411435,1.1369773,-0.3531142,1.387576,1.1379584,-1.1135578,1.6640632,-1.036495,-1.3036654,-0.8748517,-0.31377655,1.0199243,1.2175009,-0.66208625,-0.59119344,0.8625639,0.7920815,-0.9183577,0.56813073,-0.38245913,1.0633236,0.69881636,-2.4075556,1.8829001,0.9055519,-0.20010346,-1.1986389,-0.056135707,0.9444074,-0.4658844,0.1299796,1.307478,-0.1649033,-0.29612067,-0.5568647,-1.7362218,-0.094451524,1.4665252,-0.2902102,-0.06260141,0.5199874,1.5930474,-0.227363,0.9670651,-0.0745735,0.9291194,0.53289324,-0.18341771,-0.081629455,-1.6894424,-0.5316267,-0.44598043,0.3073298,0.056118477,0.99214524,2.051211,0.9197225,-0.9554323,0.14549147,0.26724264,1.2026714,0.3403853,0.5499965,0.19234006,-1.5545949,-0.16871043,-1.2885482,-0.30683595,-0.42514277,0.10784702,0.83974326,-1.1086916,0.30457106,-0.002658508,-0.5124446,1.8054485,-0.41701427,-0.30921993,2.0952911,0.5744913,0.52298224,0.29786333,1.559218,1.4248303,-0.75691074,0.38392505,-1.8479717,-1.0569141,0.83041734,-1.741452,0.8812327,-0.70153505,-0.39377427,0.14782496,-0.14950764,-2.2385993,1.2909415,0.4109088,-0.81578875,-1.3817686,-1.3089799,-0.4615818,0.9115562,0.2144911,0.64718294,1.6190823,-0.14708753,0.58744264,0.06336795,-1.7124286,-0.572872,1.007444,-0.3383777,0.86226124,0.7216294,-0.23612076,0.2633386,-0.16853209,1.0526211,-0.32705867,-0.11285618,0.13937512,0.138163,0.010702083,-0.62886596,-0.25781175,-0.9441763,0.37225327,-0.9609044,-1.2040334,-1.9983236,-0.7918612,-0.9327355,-0.8345961,-0.15780471,0.77891266,0.2575022,-1.4343857,-0.8303069,0.20924807,-0.8478584,-0.5621668,1.0269569,-1.8782958,-0.781972,-0.10736444,-0.4637228,-0.552765,-0.9317486,1.8982923,-2.2213562,0.97403413,-0.29776537,1.3660214,-0.34366384,0.018493231,0.3324104,0.3492355,0.114023864,-2.0481207,0.22445258,-1.1363109,0.2112633,-1.037999,-1.6576382,-0.5411646,-0.8199414,-0.5646171,0.6665273,0.70369476,0.12226806,0.6598764,1.2274462,-2.1259918,-0.36070025,-1.9986719,-1.3047909,2.7969964,-0.40218544,0.008033308,0.26775986,1.5086447,-0.6524138,-0.57104534,0.35633856,-0.6296761,-1.3075906,-2.1507204,-0.838965,0.45955333,0.36216533,-0.47363654,-0.47437388,-1.4579432,-0.14294529,0.3431395,-0.6650683,0.52060866,0.92877555,0.18477191,-2.292897,1.5584042,-0.23889202,-0.8151482,-1.202621,0.6073969,-0.26253524,-1.709438,-1.7943395,0.41399816,2.0612879,0.80588114,1.6955072,-0.7466365,-0.99008626,-0.0032633739,-1.1894112,0.3951081,-0.13646299,-0.7295119,1.2909791,1.894066,-0.66800237,-0.5847393,1.8045609,0.9008946,-0.5701786,0.3779542,0.017849933,-1.4866011,-1.606735,-1.4165968,-0.7854638,-0.7577525,-0.31406784,0.07057921,1.2113638,1.2344748,1.4377233,-0.2902459,-1.404151,-0.95684737,-0.5396814,0.74849826,-0.45305002,1.034487,-1.9350898,-0.59345996,-0.9524782,-0.49826476,-0.71432495,-0.45096964,0.58244866,2.3389115,0.53312874,0.7718084,-0.3897491,-1.5855877,-0.046061587,-0.06692793,0.38900566,-0.96534294,-1.1548584,-0.35335058,-0.86843866,-1.1067255,0.45087713,-2.3072085,-0.9209999,-0.059269655,0.49118397,-1.6505442,-0.8242981,2.3524745,0.3297834,0.07290839,0.20202215,1.2557294,-0.75092024,-0.19576894,2.2685535,-0.14122784,0.99517846,-0.058015503,0.41544643,1.3290182,1.333915,1.7128768,-0.56619513,2.5326252,-1.5428586,0.2511095,1.0873904,1.0629264,0.29882777,-1.0551112,0.7269978,-0.55947703,0.14256667,-0.52179056,-1.5556755,0.61748576,-1.5904804,-0.46108678,1.047452,0.5921021,0.055813994,-0.24333268,0.18336993,0.43229043,1.4196944,-0.5222966,-1.1847738,-2.7054248,-0.0442285,-0.15065083,-1.1837796,-0.8902532,-0.23142934,-1.5343738,-0.4350444,1.3949978,-0.945561,0.2268341,-2.135916,0.18948774,0.7583915,0.16355412,0.22278196,1.9379214,0.62817734,-0.4469669,0.6851437,-0.10816463,2.376379,-0.06729303,-0.037077308,-0.44692218,-1.1833442,-1.9444602,-0.50650126,2.4463441
Bisoprolol (hemifumarate),1.5548544,-0.008255601,-1.2736406,-0.40844774,-0.44625935,-0.9103389,-0.30930796,-0.60312355,-0.5894139,-0.12418363,0.34043387,1.548573,0.089954674,1.4225662,-0.972322,0.58355385,-0.26124847,0.50778997,1.19815,1.0156583,-2.2830222,-0.42974624,-0.85957026,1.4756572,1.5692892,0.2504904,1.0065316,1.4172065,-1.0663261,-1.5038705,-0.43581033,-0.9018485,-0.6907849,-0.39388588,0.73086274,0.03416115,0.73109883,-0.5824006,-0.5982141,-0.23770338,-0.7502022,-2.3334503,0.10324367,2.3889496,0.1495059,-0.25173566,-0.025882322,-1.1098083,1.2965043,0.8914665,-0.21090762,0.13276851,0.06714621,0.05106483,0.55992305,0.78422976,0.36780253,-1.1106373,0.98319423,0.07855441,-0.15519103,1.6398276,-0.35475105,1.5378656,-0.22805262,-0.60328543,-1.4202082,-0.15597527,1.17491,0.6982806,-0.34740764,-1.6189048,2.441858,-0.43779618,0.61546355,-0.85851485,0.87740916,0.89212346,0.015491219,0.81201804,1.4080776,0.6550172,-0.20987387,1.7980832,-0.5929394,1.5546199,1.3440851,-1.1705014,-0.03431696,0.6578371,1.1392748,-1.1487267,0.56729466,0.50611037,-0.51464766,0.15028308,-0.49367338,-0.48933187,2.2384984,0.11447922,0.23464458,0.54447925,-1.502911,0.3531637,1.380027,0.53940445,-0.5041775,-0.14274165,-0.49899742,0.078861654,-0.48903298,-0.20827763,-0.33786395,-1.0330006,0.20133655,-0.8871382,0.7430349,0.69355863,1.3662325,-0.17797993,-1.3187279,-1.4930118,-1.5597874,1.4414569,0.17323472,-0.4669136,0.8733784,0.22143568,-1.2225701,-0.4491656,0.4872994,-1.4339864,0.36581373,1.11003,0.3140183,0.6331113,1.1986556,-0.103232995,-1.4242005,-1.3429936,-0.5963363,2.3673873,-0.90244514,1.3228214,-0.92496806,-1.6495763,1.2902648,-1.9700955,0.560613,0.38796577,0.5435576,-0.45240375,1.1506656,-0.55924046,2.326651,-1.2287554,4.1946936,-0.48117208,-1.5827012,-0.4075928,0.90823954,-0.43996996,1.075653,1.1570975,1.6272327,0.9447743,0.5738587,0.2648482,0.27311495,1.0637479,-0.34535834,0.60738474,-0.31443423,0.6732202,0.21198983,0.18727145,-0.9182102,-0.7211761,0.5235371,-0.34783506,-0.37939358,0.28608352,-1.5278817,-0.39308184,-0.7114143,-2.6566632,0.69911987,-0.44726193,-1.0431991,-0.7097013,0.6438559,0.43407324,0.98427767,-1.0214151,-0.094773985,-0.862514,0.24723119,-0.3191468,1.6064867,-0.30861992,0.06065511,1.3160244,0.5995751,-0.62484837,-0.527094,0.20165914,-0.13670558,-0.056136288,-0.09297415,-1.3256599,-0.11343798,-1.2065457,-0.28902122,-0.18416898,1.815352,0.3643514,-0.047020413,-1.2282176,-0.16169672,0.9897642,-0.8719117,0.64606863,0.99776006,-0.25727403,-0.77805996,1.7377856,2.8432953,0.79639703,-1.1561352,0.3376588,0.40883428,-1.6497982,1.2618686,1.8204272,-0.2341026,-0.27031094,-1.3773602,-0.45123976,0.6926448,0.226756,0.23432148,-0.08148131,-0.5228487,1.2251052,-0.22690848,0.025734756,1.0393754,0.61770356,-1.6081488,-1.1114585,0.29501468,0.11802649,0.94920594,-1.1698838,0.0058732238,-2.3132367,-0.07645083,-1.4792689,2.0181959,-1.3031722,-0.5828482,-0.7533086,0.16949566,1.3153,-1.1921309,0.58039594,-0.6194799,-1.1747931,-2.551772,1.1559157,-0.6981252,-0.3863253,-0.193174,0.7813736,0.6728167,-0.19258855,0.38320065,0.7025162,0.8518195,0.7864431,-0.072435945,0.2902621,0.16976413,0.6096439,1.838265,0.45020336,-0.9468322,-1.6068602,-0.788819,1.2961937,-0.5026285,-0.61956567,0.6553142,1.9762236,-0.5660763,1.457629,-0.30581447,0.9540234,0.994458,0.8651634,0.5136943,-1.6700562,3.1459687,-1.0081666,1.290314,-0.4115252,-0.39895964,0.058997598,1.0649647,-0.30643898,-0.9463195,0.95232004,0.43721914,0.494514,0.10960673,0.62465334,0.44656467,0.22756875,1.3429656,1.2209071,-0.6711817,-1.819114,-0.90337104,0.6635111,0.83001506,2.4685156,-0.19168146,0.3358492,0.89752394,-0.40002993,-1.256924,-0.5749351,-0.3077278,-0.6086891,-1.7751799,-0.46786633,0.5455206,-0.46166286,-0.1734881,0.10534604,0.49121988,-0.06209061,0.3691009,0.41036844,0.7791829,-0.2342816,1.3990453,1.561286,0.60878843,-0.51569074,0.9070217,0.30731097,-2.0844066,0.3967663,-0.241345,-1.1025842,0.50814104,0.021996021,0.50103766,-0.61035836,-0.29792628,-0.6837077,-0.9927045,0.52075446,-1.6475645,-1.0418698,1.5278234,-0.4363854,-0.3480531,1.6637022,-0.5168288,0.015396139,-0.36718082,0.31706488,-0.06946422,-0.7139952,-0.55486465,-1.8889213,1.674832,1.1103607,-1.6138593,-0.1360746,-0.27031037,0.48465496,-0.22152315,-0.25517297,1.1201873,0.85049415,1.0334538,-2.1248083,0.7282605,-0.86824876,-2.296095,0.82848614,-0.44569638,0.8378729,1.3986677,0.89625084,0.7008528,0.88708025,-0.3484203,0.8714376,0.89442,-0.7469781,-0.54220647,-0.6636986,-1.6773381,-0.26939213,0.5810654,-0.22557023,0.31506014,-0.345327,-0.349945,-0.5529768,0.7837653,1.2802889,1.6204776,0.2757137,2.057385,0.75931007,-2.0849712,-0.3478729,1.5891838,0.26387474,-0.7126165,0.23484263,-1.287037,1.1823475,-0.2852195,1.7414247,0.7152884,0.12111084,0.9770053,-0.87708765,0.2351913,-0.8059014,-0.5068357,1.4402934,1.4183286,0.3534001,-0.5879841,0.44206467,0.55364525,-1.2757899,-0.59002745,-0.057435744,0.2140473,-0.7263098,-0.65682507,0.39412367,0.40236637,0.56371784,-1.1362579,0.012468362,1.3818696,-1.3311718,-1.054326,2.4342694,-0.19658351,0.2512295,-0.9032082,-0.5846654,-0.40385962,1.4772104,0.3371157,-1.3243501,-0.50215197,0.9835012,-0.92004067,0.0068489923,-0.27498925,0.5946249,-0.32744098,-1.066214,0.66234964,-1.2997171,0.03385909,0.16949615,-1.2039313,0.044021226,-0.23801756,-0.13177155,-1.2178013,-0.879583,-0.25671566,0.82872045,-0.4455744,0.77999073,1.5352505,0.69954973,-0.10262781,-0.5380569,-1.2675359,0.25461775,0.74829185,0.991023,0.1589427,-0.6310729,0.55036277,0.7881305,-0.62129813,1.397434,0.2218176,-0.49132293,1.8560854,0.66358924,0.7668357,1.0325892,0.48704565,1.1827701,-1.4891144,0.47995296,-0.20719688,-0.7151468,0.94474167,-0.6987139,0.6845302,0.65504247,-0.9292984,1.4216088,-0.43460116,-1.6202698,-0.07556911,-0.4608272,0.12003907,-0.7523817,-0.5576131,0.26760763,1.2661058,-0.030859785,-0.04379289,1.4761245,0.21665053,1.1179154,0.5736114,-1.3976523,-0.06467084,0.9035579,-0.14241876,-0.58298177,1.3923929,-1.5133291,-0.13062891,-0.5680413,0.11413383,-1.9553385,-0.25645828,-0.45099077,1.0405728,-1.3279281,-0.049129855,-0.07281644,-0.77582484,0.58343065,-0.6242251,-0.54073685,-1.890864,-0.037682515,-1.3152076,-0.53744304,0.0689969,1.037948,0.23439288,-0.27766246,-0.43639383,-0.61192,0.314617,-0.48014778,0.08878464,-0.9353669,-0.2539834,-0.9917946,-0.39494723,-1.5853194,-0.50757205,1.4154687,-1.067903,-0.35795546,0.34759364,-0.6693958,0.6541019,-1.6939483,-0.020980658,2.0389452,2.0490625,-2.3515704,-0.6660425,-1.4564258,0.046535704,-0.6231417,-1.9683291,-0.8748714,-1.0280986,-0.7139407,-0.0745474,0.9996251,-0.9901301,-1.0969346,0.8967171,-0.4230689,1.6558897,-0.52800095,-1.0397687,1.563083,-0.5429167,0.012906913,-0.8204545,1.2277744,-1.2332428,-0.5838602,0.9574588,-0.51935005,-0.8262454,-1.651895,-1.1693277,0.26069707,-2.2467031,0.28428632,-1.6774157,-0.5313121,0.23219515,0.93269306,0.6107466,0.8824248,0.7135515,-0.62555724,-2.0667355,0.37636262,-0.76969963,-0.5703987,-0.4842834,0.4748651,-0.013652656,-1.0586382,0.6685552,-0.26752952,1.6020855,2.2415595,-0.16378756,-1.1759658,-0.61207455,0.41586733,0.7647756,0.43157932,-0.3861972,-1.3718823,0.7193001,0.18549885,-0.3780705,-1.3463528,1.9741154,0.7485145,0.155496,1.6880442,0.31915015,-1.1170582,-2.4643977,-0.9497486,-0.82439363,0.87331325,-2.0689936,0.51731867,0.36971232,1.9092458,1.9808238,0.788438,-0.34743342,-1.3775731,0.5280971,0.98937935,-0.2277116,0.20340942,-1.3416507,-0.22934963,0.38643798,-1.3354604,-1.2626932,-0.6584769,1.9133466,1.5741259,0.80532545,0.49632743,0.18467402,-1.0360059,-0.5161495,-0.12021526,0.47013497,0.8754267,-1.2245947,-1.1649265,-0.0037988606,-0.86600703,0.07553955,-1.961448,-0.2601751,-0.41163576,-0.47195348,-2.1686406,-0.11218028,2.4466288,0.1808218,0.5773937,-1.311549,0.78921396,-0.051344905,-0.5647861,1.2497057,-1.262784,0.7128203,-0.36596477,-1.1987573,1.6446166,-1.0861602,1.6799377,0.68321913,1.5444366,-0.2178825,-0.50314915,-0.38645124,1.3381195,0.29269877,-0.1736527,0.0078007965,-1.9289192,-0.2790847,-0.95614094,-0.77617747,0.7172998,0.35216346,-0.967213,0.7335,2.1740868,-0.54122233,0.056396797,-0.5334071,-0.041983716,0.60316896,0.29685983,-0.62534493,-3.8784373,-0.16612485,-0.8467093,-1.3634231,-1.2621781,0.23790516,-0.013445525,-1.5069227,1.5642033,-1.6639955,0.13338062,-0.1256945,0.5894906,0.3648015,1.0768518,-0.5072012,2.143282,0.20928682,-0.8570982,0.58056104,-1.2205682,0.88093907,-1.712347,1.2787571,0.47837004,-0.94969994,-0.87225235,-0.15265396,0.77997756
Fumaric acid,0.7905298,-0.9296961,-1.039292,-0.829473,-0.3695397,-1.1720053,0.1142884,-0.6922361,-0.44346067,0.34640288,1.6242974,1.218355,-0.75641817,0.9840935,-1.2413807,0.9502629,-0.83821046,-0.5569152,0.063508235,-0.9602226,-0.93495536,-0.11891563,-0.63193995,0.5369565,0.8153572,0.9889477,0.65090436,0.045260265,-0.6137853,-2.1658547,0.20506504,0.5136363,0.114442974,-0.16793926,0.6672721,-0.012096381,-0.04878017,-0.6741207,-0.7580174,-0.058776233,-0.21715721,-1.0876291,0.36648366,1.3188833,0.22242032,-1.1872343,-0.12524611,-1.7191458,1.0197601,1.2327185,-0.5727087,1.518834,-0.04792765,0.38243064,0.09669206,1.0066919,-0.6223519,-0.120034575,-0.0762284,-0.3153722,-0.49443388,0.7028601,-0.14626943,0.07186193,1.5726407,0.11202748,-1.0678726,0.66273123,1.7582208,1.092756,0.35658154,-1.1607801,1.5814804,0.25271672,1.2605839,-0.5676359,0.41858882,0.27654123,0.37291282,0.50632983,1.2328993,-0.05400376,0.6706117,1.3168179,-0.91109425,1.9519136,0.59973526,-2.130918,-0.9596813,0.21802175,-0.2611486,-0.6765752,0.8475677,1.4659215,0.7109565,0.880708,-0.604548,-0.78439444,1.9729946,0.14075662,0.34805962,0.9201347,-2.6430812,0.13191946,1.0871192,0.16321583,0.83936006,-0.1924502,0.49919263,0.48306972,-0.7184239,-0.850789,-0.7610717,-0.93291724,0.7583168,-0.5467495,0.35383916,0.09338205,1.5408907,-1.7851269,-1.3280109,-0.69190806,-0.99474853,0.19801992,0.6151987,-1.0192635,0.5413392,0.28690445,-0.4888692,-0.7668542,0.3194325,-0.67439044,0.8004697,1.11356,-0.869322,1.0769897,1.3661427,-0.30617425,-0.65154624,-0.24293849,-0.41880006,1.0854603,-0.96671194,1.2145262,-0.77601266,-1.0711913,2.2531116,-2.1640656,0.57615906,-0.5724686,0.3125251,0.71313024,0.12766264,-1.310128,1.5431247,-0.091606565,3.318703,-1.2343879,-1.6129241,-1.4999413,2.1289117,0.2596805,0.69141513,-0.7582354,0.9683124,1.6242015,0.82689023,0.37919113,0.39609486,1.554159,-0.5256884,0.38344508,-1.4528834,0.25493467,0.2435123,0.25175157,-0.47159025,-1.4542286,0.5376524,0.6675722,0.50329465,0.15638441,-1.9133979,-0.65191746,-0.80694985,-0.9681551,-0.6394947,-1.4871405,-1.7851834,-1.157591,1.4659857,0.5481544,0.5414911,0.866808,-0.3123652,-0.9914228,0.21407825,0.015366971,1.3592242,-0.5334923,0.09673878,0.38892785,1.295913,-0.8441849,-1.092582,0.33398876,-0.20895608,1.4396913,1.4846863,-1.1687421,1.4946766,-1.3177925,-1.5985368,0.7655984,0.415066,-0.35065728,-0.7450539,-0.9451384,-1.0857741,0.7243993,0.057558414,0.81234866,0.9444543,1.9212728,0.050787874,0.73585546,2.9671786,1.0553045,-0.8453297,0.14947551,-0.43286425,-2.0607882,0.56485564,0.43784386,-0.53808457,-1.0074699,-0.56636477,0.29705507,0.1973262,-0.6999366,-0.9234356,0.11427154,-0.3414323,0.41635907,-0.3828328,0.68738747,0.5508878,0.35107598,-0.550059,-1.2762082,-0.569529,-0.13831778,0.26902235,0.04039203,0.41339284,-1.4538791,0.29626048,-2.4369352,0.7596277,-0.033028338,-1.6874634,-0.5102643,-0.37543923,1.3938122,-1.1714629,0.30507472,-0.5596865,-0.41656432,-0.70011705,0.9751685,0.37438142,-0.028100517,-0.62266976,-0.25979024,0.90202725,-0.010270907,0.9612168,1.6039569,0.816875,1.4871873,0.055698313,0.9406021,-0.46343872,0.8284642,0.77156633,-0.3823242,-0.8157403,-1.5002673,-0.6837557,0.3107925,-0.68450534,-1.2366768,0.98725873,1.4964641,-1.3163859,1.0499712,-0.084689245,1.2296163,0.7235675,0.6481165,0.6593543,-2.4483304,2.5494611,-1.8200558,0.49887452,-0.295842,-1.1807241,0.5023132,0.43724638,-0.4955004,-1.519854,1.2097845,0.76199335,1.1561065,-0.79666185,0.78809875,-0.116012424,-0.21872395,1.0100626,1.1637579,-0.2329637,-1.4017715,-0.2956868,1.0725582,0.31252742,2.0459456,0.5780567,0.18156807,0.6131913,0.7207121,0.2466251,0.35181165,-0.46872172,-0.5410045,-1.5740913,-0.7840267,0.26524395,-0.27603027,-0.54446,-0.355124,0.97034454,-0.49678975,-0.7353321,1.1064819,1.155618,-0.6458013,1.7406467,2.4906075,0.14824665,-1.4352906,1.4438045,-0.1794326,-2.9131036,1.05826,-0.6411528,0.96906996,0.5794204,1.0006506,-0.10685503,0.055509254,-0.6240648,-0.43875113,-1.298751,0.764931,-1.1840123,0.18335114,1.2792525,0.69633764,1.2845973,1.0692836,-0.59090036,0.3800084,0.3175106,1.1875322,-0.40209204,-0.7591787,-0.20149066,-1.5747254,1.0346005,0.89674944,-0.04909257,-1.134531,-1.3198565,0.5445699,0.45053557,-0.2168277,2.4863772,-0.003561522,0.040186968,-1.779182,-0.5012176,-1.193446,-2.744178,0.3387758,-0.3217252,-0.33347967,1.643302,0.6053519,0.9304929,0.58489347,0.3640591,0.3910754,0.1726426,-0.99681884,-0.101773046,0.5928686,-1.6640269,-1.0188527,0.23166707,-1.0506923,0.2857346,-0.28780732,-0.15064348,0.7571273,1.6803288,0.34206498,1.2023993,0.16500482,2.4612818,-0.5380936,-0.99455494,0.10708995,1.1862895,0.6254253,-1.0453568,0.72710556,0.01974085,0.82733727,-0.099405296,1.5055523,-0.04159522,0.06421843,0.9510964,-1.5655111,-0.07130356,-0.25752494,-0.714652,0.95667255,1.0457437,1.7038587,-0.7426476,0.5199001,-0.36605656,0.11320781,-0.7200057,0.6311646,0.22089913,-0.79678386,-1.4469123,0.8469154,1.0115328,-0.75929886,-1.8207414,-0.009735248,1.3652881,-0.6353183,-1.1579384,0.79810375,-0.19137038,0.1863101,-1.1806396,-1.2875959,0.89874864,3.007888,0.62259865,-1.3677655,-0.6535355,0.66998607,-0.43011957,0.46779343,-0.010021969,-0.45817408,0.09060919,-0.122519426,0.83702147,-2.048672,-0.37204307,-0.123360604,0.022689207,0.2343233,-0.4918363,0.25342593,0.27611652,-1.4051105,0.5796565,1.170768,-0.77086,0.14148775,1.1698291,0.85455275,-0.71601886,0.27968836,-0.47256124,0.11891281,0.40075353,0.75075203,0.3319703,-0.5151249,0.6673823,0.9684973,-0.436156,1.2002238,0.3944433,-0.6002562,1.7544298,0.21352468,0.020579116,1.1903594,0.6079,0.32462433,-1.8399274,-0.006257111,-1.492574,-0.13836314,-0.26016128,0.27298737,-0.2749703,0.45689785,-0.16294226,0.9957766,-0.32037306,-1.7734773,0.61200213,-0.43712023,-1.7672217,-0.9918275,-0.05942899,0.42974868,0.75372064,1.5451825,-0.6990723,1.1480596,0.27669626,0.47464427,-0.47943455,-1.41186,-0.6412885,1.2032754,-0.24803397,-0.6687376,1.3175375,-1.3928926,0.45548818,-0.7227402,1.164199,-2.0524194,0.7440365,0.11236204,0.71523905,-1.6320394,0.8358339,-0.55036485,-0.35083163,0.8446807,-0.7088262,-1.0980188,-2.6748006,-0.047091257,-1.0918598,-1.6742201,-0.17767672,1.7041754,-0.6120779,0.6335167,-1.1368428,0.45578587,1.4675007,-1.5767989,0.7793609,-0.6235107,-0.4935634,-1.5747503,-0.71931356,-0.49892265,-0.27551165,2.6758413,-1.9572313,1.1315675,0.40400362,0.539655,-0.5250051,-1.2841529,-0.22935884,2.0462542,1.3427894,-1.854095,-0.3063825,-1.1665274,-1.0661699,-0.12269904,-0.46320793,-0.9662093,0.015271511,-0.8723645,0.88595563,0.522833,-1.6499889,-0.14412512,0.019463366,0.47092003,1.502112,-1.2442095,-1.5602705,2.0018373,0.68237895,0.8493286,-0.25289553,0.99480706,-0.67942345,-1.07915,0.012563346,-0.5495454,0.08423699,-0.9184167,-0.77677643,-0.20823157,-1.189202,-0.62110734,-0.48644322,-1.2735534,-0.2466637,0.67261636,-0.22869585,0.295902,0.5233607,-0.48611456,-2.0549064,0.80838215,-1.0151341,-1.3803804,-1.0942408,1.0514816,0.41647586,-0.67407405,-0.8787668,-0.12708825,1.6184099,0.7903416,-0.33534214,-0.5795719,-0.6339132,0.43032125,-0.9736779,-0.5736889,-0.37116838,-1.4613162,0.17788672,1.4207976,0.22747105,-1.8269331,1.5152106,0.4071963,1.0695277,0.99328923,-0.39490208,-1.1446718,-2.1905224,-0.2793982,-0.68696815,-0.90710765,-2.3508244,0.19558224,-0.22695495,0.72634643,0.31120673,0.05587524,0.11976594,-0.6557068,-0.25991955,0.86006457,-0.59658545,0.8399304,-0.47362778,0.56982934,-1.1240574,1.2788206,-1.592535,-0.92643034,1.7264941,1.5366445,1.6239866,1.2406238,0.0261921,-0.16185993,-0.40103984,0.37033606,0.68476105,1.1149827,0.047338802,-2.4931767,0.61069113,-1.7301779,0.9963051,-1.5620313,0.20894961,0.24524833,-0.38816738,-2.0270889,-0.121536754,2.5754552,0.9566075,-0.45109847,0.2263767,0.9719308,-0.33672974,-0.60998017,1.2658201,-0.16935717,1.4430119,-0.9052569,-0.9575371,1.2084584,-0.22994763,0.57951754,0.9521432,2.123279,0.038455304,-0.64677984,0.70158213,-0.18496647,-0.09336963,-0.87225944,-0.16690272,-1.0016336,-0.59749645,-0.70168114,-0.819518,0.66969526,-0.15545416,-0.769772,0.7177776,2.7246642,0.056149416,-0.5715861,-1.0233392,0.7089499,0.8878069,-0.061203063,-0.40985176,-2.6007586,1.4552096,-0.40927547,-2.05314,-1.417344,-0.051220555,-0.5207345,-1.3140732,2.1338425,-1.0438437,0.8482731,-0.4325449,-0.53550446,1.0493779,0.31081343,1.3459526,1.5644274,1.1544006,-1.4158909,0.27616388,-0.5161184,0.38607967,-1.9902784,1.8789614,0.39237887,-0.98886573,-1.3813773,0.2322117,1.1281401
Hydroxyurea,1.3378564,0.19717596,-0.49210352,-1.4951849,-0.52768815,-0.544238,-0.18669817,0.034771,-0.7164728,1.0659145,0.715552,0.030622173,-0.054696586,0.8560683,-0.565327,0.9657305,-1.3873458,-0.6310126,0.71363187,0.5160322,-0.6624409,-0.1984556,-0.64958227,1.0830479,0.19844677,-0.18872437,0.3744556,0.9535719,-1.6881815,-2.2940464,-0.4534056,0.05615572,-0.08264474,-0.24098834,-0.01758379,0.10257511,0.2490208,-0.43439582,-1.4802856,-1.031701,-0.38529173,-2.1389663,-1.0685618,1.0004095,-0.21485592,0.52684766,-0.041246034,-1.277427,0.5809228,1.2334481,-1.0176549,0.9043039,1.0382645,0.72152597,-1.2425605,1.1675681,-0.036581684,-0.64397085,0.34444946,1.1508787,-1.0219325,1.127904,0.35937348,0.56529087,0.79168034,0.29687998,-1.0792444,0.80769485,1.3963159,1.327125,0.054840893,-1.9440173,1.34366,-0.23688227,1.4825315,0.13990979,-1.370735,0.18016827,-0.26761523,0.5986356,0.26627636,-0.53655624,0.29994473,1.2879798,-0.22847201,1.308097,1.0341203,-2.1016726,-0.71121544,0.57216364,0.23433042,0.052357987,1.1101432,0.8916711,-0.62479055,-0.065222345,-0.2743178,-1.1964209,1.2172972,-0.0066101933,0.54111814,1.5133513,-2.2642941,0.13908081,0.61075586,0.10397337,0.22658426,-0.4674517,0.6985484,-0.5885489,0.26131353,-0.36260208,-0.35642686,-0.39004725,-0.022978764,-0.4828801,1.041869,-0.051083267,0.84594965,-1.0692306,-0.67796504,-1.4303893,-0.7410238,0.32580042,0.9495368,-0.7090177,0.5665545,0.18667156,-0.16041312,-0.06426359,-0.27038983,-1.273367,0.6738345,1.1408463,-0.7553403,-0.22932467,1.1816723,-0.53386414,-0.73470616,-0.63650733,-0.7273114,1.7001088,-0.58589256,0.8408314,-1.5309451,-1.1561643,2.0814924,-2.0174558,1.7505004,-1.9335674,1.9213098,-0.4607978,0.9379393,-0.59431255,1.9430202,-1.1584222,3.2991805,-0.3905505,-0.98296297,0.0593966,1.6585482,0.881305,0.31459585,0.05254212,0.9232892,0.9273955,0.84827244,0.09283468,-0.4939325,2.7428546,-0.13456,0.3334867,-0.90615606,0.7101487,-0.67643,-0.21067934,-0.46715578,-1.7006752,0.82067907,0.5657852,0.77818966,1.4798025,-1.4052969,-0.9479719,-1.4464784,-0.47656563,0.70442206,-1.2687632,-1.4616759,-1.1023018,1.3561031,0.40361226,0.99869037,0.33830374,-0.09462743,-0.58327776,-0.18826477,-0.68615776,2.5190237,-0.27563065,0.08507304,0.36394972,1.5887266,-0.02963635,0.25517842,1.3980192,-0.6572117,1.0140276,0.9985387,-0.70618653,1.2381455,-1.9768497,-0.49790946,0.07186017,1.1336892,-0.7995466,0.34022883,-0.857203,-0.023507329,0.4389335,0.5636343,0.6132927,1.1042573,0.9640893,0.26569796,1.0308288,2.93768,0.4803436,-0.5240836,0.41815975,-0.17095634,-1.4081067,0.20588946,0.76292735,-0.09283337,-0.80496186,0.9483875,0.60459554,0.06681334,-0.61295986,-1.2434139,0.25086713,-1.3520931,0.23232909,0.15107805,0.61928946,-0.12460039,0.6518894,-0.29279307,-0.6200812,-0.8483707,-0.43364376,1.103173,-0.8497052,0.2604949,-1.791449,-0.040807996,-3.784272,1.3316925,0.38998115,-1.0717821,-1.0918387,-0.47004697,0.037040416,-0.43775815,-0.2256863,-0.4586896,-0.7171025,-0.21439466,1.6998165,1.2149004,-0.93335116,-0.21696858,-0.21399528,0.66981417,-0.74363035,0.61151373,0.9840973,1.4876261,0.9944355,-0.3553614,1.3944829,0.28906626,-0.08674821,1.1889495,0.6534832,-0.8362109,-0.4692428,-0.6244936,0.6353947,-0.021334268,-1.3480062,1.7035686,0.9846598,-2.5216534,0.83765256,0.2211398,0.74029624,0.6746904,1.0611694,0.8756748,-2.9029498,2.2018106,-2.0380201,0.13059813,0.39027745,-1.6962272,0.9844265,-0.005238569,-0.646549,-0.6532618,0.609185,0.72210294,1.1577573,-0.5395124,0.5557044,0.15636712,0.09169626,0.80483115,0.6909465,-0.31354347,-0.021632662,0.3058755,-0.3851035,0.5012865,2.1985636,1.1709318,0.5271888,1.8500704,0.9569097,0.44168207,-0.5315901,0.38545632,0.17875761,-1.3205124,-0.63174087,0.84657145,-0.52346754,-0.30431232,-0.9003109,1.6471075,-0.29469484,-0.098848365,0.36597958,1.4164943,-0.4835742,0.90219027,2.7150676,-0.11009878,-1.4093344,1.1096025,-0.7496211,-1.7423215,1.2466443,-0.4550858,0.6175338,0.46184903,0.38703412,0.26163003,-0.18258974,-0.8416146,0.6915056,-1.61678,0.49094066,-0.5009109,0.19988391,0.55356437,0.46061805,0.14964136,0.90928096,-0.8859717,0.5024815,-0.23851824,2.0079606,0.074675925,-0.3993906,-0.30217046,-1.7999502,0.8665746,0.22686881,-0.14527142,-0.5833852,-1.1616226,0.5464841,1.3732419,-0.66207105,1.7404219,-0.50588536,-0.20725869,-1.454557,-0.12778275,-0.9953367,-1.4105576,0.076995656,-0.19595262,0.3772472,2.3312411,0.5048369,0.20675115,1.0829558,0.18848222,0.1104063,-0.10707659,0.055668112,-0.7590449,-1.3233417,-0.89490956,-1.0149922,0.9802916,-1.5536821,0.68379533,-0.08910329,-0.6691664,0.43933946,1.3701272,-0.2896105,-0.15815967,-0.43258706,2.1728342,0.3117419,-1.5125977,0.5135951,0.29597437,0.1583267,-0.542445,0.6563821,0.68978924,0.25869164,0.006660576,1.6028703,0.39198667,-0.0137117235,2.181496,-1.6233596,-0.7900788,-0.30450207,-0.3143265,1.3853698,1.3632758,1.2587745,-0.6261413,1.0589803,0.3486278,-0.7604201,-0.040183317,-0.16201378,0.7584126,-0.63273335,-0.9735199,0.77080005,0.8363916,-0.69594395,-1.3364451,0.41036537,1.0355966,-0.7787429,-0.9435485,0.24353647,-0.74020636,-0.16533951,-0.1831544,-1.462893,0.55651855,1.854691,-0.2012663,-1.1417655,-1.0182744,0.3935326,0.12063574,0.26584914,0.1900354,0.5464115,0.09473915,0.282722,0.09365851,-2.5747125,-0.60021585,-0.11030935,0.41186413,-0.008294705,0.46130657,0.33979887,0.05462918,-1.9914949,0.5944657,0.61598545,0.6465105,0.54586196,2.517739,0.38757905,-1.4418422,-0.6107751,-0.99488217,0.20174967,0.24395381,0.7082047,-0.27801555,-1.1005375,0.8012553,-0.148606,-1.3075509,1.1058704,0.055401452,-0.37308165,0.74812853,0.27385217,-1.5150245,1.0503256,1.3759756,0.08853931,-1.8120505,0.7058419,-2.5363877,-0.5957683,0.75393313,-1.2569774,-0.43154734,0.107763484,0.32417277,0.970292,0.13399129,-1.7081704,1.1539873,-0.5984411,-1.6839345,-1.7227733,-0.89156616,0.6031915,0.8052985,1.4317021,-0.43949986,-0.17549835,-0.12825519,1.111127,-0.15631458,-2.0941715,-1.6251663,1.320314,0.739767,0.42595974,1.2298175,-0.18666469,-0.2898768,-0.83332115,1.3618262,-1.3571326,1.3176962,-0.13568437,0.30597538,-0.62470955,0.19514821,0.40840936,-0.07865913,0.63663644,-1.1339959,-1.2105213,-2.2331154,-0.91157925,-0.8523531,-1.2003179,-0.2587933,1.1375676,0.246804,0.4705397,-0.1444414,0.469272,-0.6229565,-1.433357,0.94881195,-1.3451325,-0.5028084,-0.25924253,-0.54562706,-0.48081112,-1.2259927,2.802715,-1.7557706,0.5247291,-0.07275252,0.67808616,-0.07147122,-1.1093411,-0.19484137,1.0689634,1.5940181,-2.5500696,-0.7135322,-1.0342815,0.24256934,-0.06495497,-1.2380961,0.1861282,-1.4831928,-0.8445817,1.2836967,0.12212427,-0.30179855,-0.045134593,0.80822015,-0.46913278,0.8888066,-1.6455642,-1.6087968,1.7006289,-0.078641385,1.2536725,0.82004654,1.2359872,0.058440004,-1.2346218,0.70545155,-0.6729598,-0.009149814,-1.0378356,-0.29769957,0.060238488,-0.38763908,-0.8478632,0.088820845,-1.0267723,0.40104547,0.16335444,0.39035684,0.04219883,0.8414315,-0.4125917,-2.1787047,1.6485806,-0.56213546,-1.5297287,-0.93097353,1.373902,-0.51793075,-0.7568931,-1.2272542,0.71064955,1.8828136,0.5826634,-0.1791816,-0.98548675,-1.5371557,0.7872801,-1.3646079,-0.2556064,0.613074,-1.5154265,0.87205726,1.4103668,-0.31742656,-0.89231753,0.43497476,0.6437918,0.102057084,0.32869518,-0.48881444,-1.0981518,-2.7354338,-0.9424151,-0.111544244,-1.3869752,-1.765771,-0.09935034,0.10353829,1.0356622,1.2037567,0.108174935,-0.14125252,-0.96501094,-0.12895992,0.52454334,-0.21716489,1.2977852,-0.41011232,-0.9545706,-0.93128943,1.1256417,-1.2271427,-0.64220876,1.6011434,1.588169,1.072453,-0.5920767,-0.5101541,-0.9791688,-0.6021523,1.3145025,-0.19991021,0.22253887,-0.57818764,-0.9846004,0.58472455,-1.4056593,1.0433407,-0.7866328,-0.7073097,0.32302535,0.32705337,-2.308132,-0.40381062,2.1170077,0.7116463,-0.33661342,0.33059835,1.2529732,-1.0466744,-0.23628867,1.6303569,-0.13706055,1.0177569,-1.0881236,-0.12542367,1.3919407,0.718309,0.35458907,-0.20919013,2.3064628,-0.03827429,-0.37840888,1.4855393,0.33560708,0.21581231,-1.5987518,0.4966713,-0.9242983,0.5913643,-0.7613007,-0.43749022,1.1784303,-1.0932895,-0.72489506,0.8554696,1.7506331,-0.054592412,-0.37925848,-1.3283113,0.9032544,0.77558184,0.42508966,-1.3769032,-2.7306716,0.9761772,-0.3747171,-2.4585,-1.5732169,-0.2166228,-0.94525635,-0.70191723,1.3696626,-1.391279,0.32062566,-1.8167555,-0.38496846,0.47867894,0.6508912,1.9650016,1.6427593,1.7652028,-1.3860744,0.5026205,0.094017014,0.91227,-1.262206,0.42121446,0.17892477,-0.6219223,-1.3537762,-0.71032953,1.794435
L-Eflornithine (monohydrochloride),0.62432766,-1.0872686,0.8365381,-0.69665134,-0.08279806,-0.25239512,-0.82458365,0.71111435,0.07457788,0.7440916,-0.10939087,-1.0333624,0.14660993,-1.0315211,-0.86908233,0.6623926,-0.72006506,-0.72131413,1.3370408,0.9348695,-0.9357838,-0.118185155,-1.2985947,0.84739745,-0.3060644,0.7307441,0.6827528,1.0533773,-0.93666583,-2.0865796,-0.1284307,-0.19828267,-0.68283373,-0.48583817,1.882744,-0.23536582,-0.16651393,-1.0639356,-1.4383533,-0.40182853,-0.38512373,-2.1469011,-0.7801686,1.1107739,-0.14111555,0.2993254,-0.33689043,-0.7270216,0.29765204,1.452622,-0.8975805,-0.55444413,0.94262594,0.99849755,-0.95980394,0.7973319,0.09264629,-0.5097395,1.0723848,0.9889749,-0.8795301,2.0960577,0.20641698,0.7212674,0.40485907,1.0959437,-1.3785158,0.3640696,1.050071,0.25147447,0.7222273,-1.8592005,2.5106502,-1.5910592,1.3864499,-0.021357968,-1.6814938,0.22458144,-0.72527355,0.7846194,1.1572891,0.5886421,-0.0049031307,1.2333425,-0.1709206,0.93069744,-0.38536233,-0.8711663,-0.4964449,-0.18882023,0.2649082,0.380765,0.2979195,0.27480066,0.32329643,0.12320631,0.63040584,-0.22500868,2.539001,0.29888457,0.1958215,0.09897157,-1.4542296,-0.075035796,0.80206347,0.7034544,-0.41628522,0.14158978,-0.1728286,-0.7749644,0.06410379,-0.14927647,-0.46139762,-1.9007626,-0.13727175,-1.6715223,0.023365138,0.09835002,1.5347718,-1.2805214,-1.0975353,-1.8414283,-0.31476995,2.0294833,0.65951556,0.274588,1.2300663,0.6128799,-0.6736208,0.57239014,0.51485777,-1.130184,0.7006185,1.4188348,-0.2813227,-0.30836186,0.49169865,-0.96531886,-1.0605597,-1.0912949,-1.1086496,1.5475898,-0.01656716,1.1502988,-0.4928504,-1.0511783,1.7932559,-1.5547253,1.9661604,-1.4121785,0.14519744,0.2514194,0.7477155,-0.8446898,2.1368597,-1.7402941,2.6923723,-0.46859753,-0.94513285,1.6173117,1.9862471,-0.76903987,0.7648421,0.07246577,1.3033433,0.49097943,1.8202487,-0.640038,-0.8351489,1.9567049,0.3770021,0.90094227,0.19451913,1.1261597,-0.47442818,0.9853048,-0.5436644,-1.973401,-0.5811447,-1.057629,0.2274353,0.28522137,-1.1370952,-1.1053554,-0.4378271,-0.7611175,-0.12997487,-2.169012,-0.69424975,-0.95890224,1.1039062,0.16988319,1.9461293,-0.26282007,-0.8401964,-0.10290025,1.0379118,0.48029485,2.3632817,0.4628017,0.087006696,0.6778298,1.0758996,-0.5376102,0.0356657,0.7816595,1.0819035,-0.6745084,0.44748434,-0.21664894,1.0709141,-0.7300924,0.32085252,-1.1479979,1.098489,-0.2948877,1.2077985,-0.91899264,-0.62425935,0.49016443,-0.041574724,0.66008425,1.8241061,-0.11716746,-0.6408958,1.386566,2.3631713,-0.087280795,-0.29756862,-0.81156474,0.50865537,-0.6703696,0.028939988,0.28273353,-0.5316517,-1.9525745,0.54735315,0.37624586,-0.93227684,0.035553392,0.049454723,0.0010032968,-1.1926584,0.19551636,0.23115343,0.55849,-0.8096824,0.09895527,-0.932634,-0.17767623,-2.162042,-0.7456625,2.4285364,-0.87045467,0.8860561,-0.7457269,-0.21222952,-2.8562093,0.5997557,0.1104294,-0.870804,-0.9614481,-0.47272703,0.9940877,-0.98128957,-0.36707687,-0.755303,-0.23115666,-1.5405039,0.6927421,-0.8062728,-1.1417778,0.5824745,-0.9658286,1.3899782,-1.8138089,-0.99037874,0.8044902,1.8103732,1.0964049,0.5238409,0.5487711,0.19124049,1.0192846,1.5587107,0.61356467,0.24094202,-0.8604273,-1.1941297,0.75839484,-0.56255245,-0.94115055,0.8520001,0.5333718,-1.3556374,1.1934729,0.5335167,-0.005177001,-0.37720168,1.1098837,1.0578363,-1.4317225,3.1969569,-0.37351826,0.35492977,0.48540142,-0.35109544,-0.5657402,0.52161944,0.14901607,-0.8667274,0.6460369,-0.045179002,0.9237557,-0.25372845,-0.081054375,-0.63906485,-0.437522,1.310528,1.0036918,-0.18819389,-0.89938223,0.001382349,0.4720589,0.24746649,2.5241237,0.91698396,0.21578798,2.930731,0.41971657,-0.48736078,0.14493553,-0.030703384,-1.0725256,-1.0605799,-1.0699859,0.78420126,-1.3671867,0.43723744,0.002589995,-0.0055604735,-0.6627872,-0.54670143,0.30944794,1.3446729,0.42119932,0.98908323,2.319075,-0.7351452,-2.2415154,1.3548584,-0.086315624,-2.3758368,0.5830688,-0.21908918,0.07813282,-0.20435119,0.25748733,0.20231284,-0.36756098,-0.998611,0.54773194,-1.2997191,-0.24676529,-0.50008535,-0.21600844,0.92008173,0.9245245,-0.1815059,0.5879166,-1.0672475,1.2978264,-0.40727136,1.5375977,-0.7728144,-0.28223923,0.05905818,-2.0735228,1.4008713,1.0159816,-0.69142157,-1.3199377,0.18216547,-0.106917344,0.7828006,-1.2215896,1.2406659,-0.46820703,-0.54402065,-1.1659143,0.74067974,-0.9976831,-0.6464843,-0.120634645,0.5686006,-0.01113484,2.2649212,0.40537968,-1.2881268,0.20423102,-0.64484537,0.30721736,1.3039584,-0.101658955,0.12562539,-2.1046095,-0.2837959,-0.62363046,0.40714577,-1.1632636,0.22479057,-0.3698756,-0.17591305,1.144794,1.1525925,0.3866563,1.312106,-0.09371872,2.11565,-0.38686085,-1.2035843,-0.6101732,1.0003419,0.5629795,-0.3241087,-0.071590774,0.5997082,0.46077487,0.101723045,1.631067,-0.45443997,0.15289676,1.6986668,-1.7727065,-0.6298885,-0.94842035,-0.65590906,1.2883364,0.7384877,-0.08569931,-0.41182885,0.31777695,0.72381705,-0.6599636,0.26998508,1.122298,0.5501639,-0.03920704,-0.8323671,0.67836744,1.939544,0.21700965,-0.732884,0.76192933,1.4916955,-0.85259974,-0.654234,-0.07523294,0.3398774,-0.13843046,0.42996398,-1.546908,0.5023966,0.6967184,-1.3710519,-0.70134914,0.29629302,1.5275751,0.042366393,0.16419694,-0.12304071,0.23482071,0.08822582,-1.3573414,-0.079611525,-1.6796023,-1.0956306,-0.7170035,0.39059418,-0.5223998,1.9523319,1.6991318,0.32646573,-1.8702569,0.28585547,0.16953117,0.14845166,0.9628048,1.6318485,-0.30424312,-1.572098,-0.73007923,-0.6355854,-0.43285722,-0.5704053,0.3759357,-0.20653722,-0.24545228,0.0008248551,0.36523175,-0.15159732,1.1856534,-0.1586755,-0.8084763,1.2285329,-0.16934,-0.6340424,0.22412495,1.0178521,1.739519,-0.7939369,0.8156584,-1.4391458,-1.4138668,0.6393005,-2.2896361,0.7542615,-0.41978258,-0.7659786,0.48643374,0.33412808,-1.3999648,0.8358202,-0.47207394,-0.8623739,-1.533867,-1.8092748,0.12911883,0.5625036,0.07905647,1.8864155,0.7489677,0.43394178,1.5178325,0.09110676,-2.6803293,-1.4717698,0.47072792,0.45394135,0.43589118,1.1179467,-1.0784907,-0.512501,-0.035365798,0.70378774,-0.69230974,1.1772157,0.23713225,0.43800613,-0.76412815,-0.43254498,0.28005165,-0.37988544,0.07886153,-0.06667836,-1.0191627,-1.306675,-0.32108104,-0.37927368,-0.6476153,0.66855365,1.3344864,0.7097,-0.85110986,-0.96813107,0.09711882,-1.1511648,-0.37759,1.2204517,-1.0652461,0.0013639964,0.8977881,-0.80057365,-0.8731778,-1.7093481,2.353467,-2.2468548,-0.16627103,-0.8628637,1.0376928,-0.12877019,0.0044409,0.6425751,0.5414484,1.3077966,-1.3292311,-0.19998762,-0.5068848,-0.6748822,-0.37214598,-2.5396872,-0.59822327,-0.9098459,-1.745996,0.9771387,-0.49696994,-0.86108446,0.73352003,0.66331583,-0.7180328,-0.56415296,-1.3829002,-1.029499,2.2839077,0.6517181,-0.409913,-0.35535344,1.2921168,-0.505256,-0.860903,0.4256684,-1.1190383,-1.7004842,-1.7731776,-0.075196564,0.33155227,-0.10621504,0.5289474,-0.18701538,-0.9464194,-0.56247175,1.3957564,-0.23300166,0.7603243,0.9995406,-0.396169,-1.9389924,0.9126908,-0.27109608,-1.9135345,-1.0315765,0.44345838,-0.86096954,-1.9722965,-0.98657763,0.57582366,1.6018828,0.37983546,0.6393725,-1.020067,-0.54988843,0.693537,-1.0501344,-0.49794143,0.37713626,-0.4475197,1.9021282,2.5930727,-0.4552707,-1.1210085,1.684103,0.95162743,0.0029349856,0.93598753,-0.3514669,-1.9675457,-2.4512591,-1.4217294,-0.23492277,-0.15061629,-0.53492707,-0.23018421,0.616726,1.4394956,0.8101183,-1.3436756,-1.9074976,-0.36748683,-0.0007817538,0.9527266,-0.43717232,1.495673,0.008318425,-0.80233747,-0.61646914,-0.5383901,-0.7268765,-0.16803606,0.7763879,1.7462552,0.7395201,0.41147977,-0.47000328,-0.1643132,-0.7676559,0.53504866,0.5283566,-0.6865258,-0.17990977,-1.4754469,-0.13960637,-0.7731174,-0.66264635,-1.0816324,-1.014611,0.5534681,1.2922871,-2.1576626,0.4933152,2.3898969,0.92426383,1.1432526,-0.14910688,1.5866396,-0.3105279,0.9302439,1.8700229,-0.40735623,0.29720315,-0.0049600783,0.2916944,0.6933895,0.81447047,1.7813075,-0.43999586,2.0514636,-1.1432248,-0.9679636,0.78047067,1.3597261,1.1004639,-0.1889585,1.013321,-1.6529258,0.34928682,-0.19399954,-1.7947077,0.42690146,-1.1007001,-0.17476077,0.82605845,0.5670144,-0.22769383,0.15500529,-0.31961536,1.0583436,1.5924798,-0.41165856,-0.34039804,-2.2604303,0.95512646,-0.3791548,-0.82876956,-1.0439467,0.37779573,-1.0685453,-0.43876526,1.9463148,-0.9423003,-0.056390166,-1.6904273,-0.3716304,1.4626828,0.18203463,-0.13549401,1.6591955,0.27773905,-0.6144841,0.4204654,0.18457739,1.637982,0.07295537,-0.09566631,0.89302206,-0.50633043,-2.0818777,-0.5928972,2.0648313
Cysteamine (hydrochloride),0.70764136,-0.59370273,0.8579442,-0.26224017,0.714458,0.13129655,-0.6939993,1.3899771,-1.2633557,0.7870055,-1.1693584,-0.9597139,0.8696569,-0.16621043,-0.19166449,-1.1295174,-0.0541881,0.48788387,1.7629124,1.1939702,-1.1256533,-0.13177224,-0.8422124,1.0424277,-0.581865,0.17381595,2.0879827,0.27613127,-1.2806084,-0.70197123,-0.39380166,-1.0506023,-1.1751728,-0.19126278,1.6121045,-0.35121968,0.3893451,-1.9098189,-1.1344528,-0.094631314,-0.21327533,-2.2482207,-0.97494614,1.3989036,-0.78107965,0.26992527,-0.28812462,-0.976503,-1.3369896,0.46685016,-1.4232032,-0.60922104,0.85785335,0.40939128,-1.2566168,0.40360934,0.7359403,-1.5027616,1.2856814,1.5145903,-1.722027,1.5592295,0.8186728,0.6602287,0.4715413,0.29362297,-0.7632608,0.4651091,0.5171531,0.5735905,-0.26062757,-0.9248055,2.4469213,-1.821675,0.61805826,0.7779579,-2.0652227,-0.9353448,0.31502807,0.61717105,0.5198878,-0.41628674,0.61701345,1.2470915,-0.27092513,0.5212906,-0.5206375,-1.4639728,-0.14794943,0.23180763,-0.045759004,-0.0987622,-0.014876927,0.6868233,0.16085029,-0.64099747,0.4269516,-0.32790846,2.2410312,0.44054997,-0.3717497,-0.1413747,0.24482498,-0.7726994,0.82876176,0.87824553,0.7639427,0.04525959,-0.14404535,-1.5016365,1.0961424,-0.59506273,-0.28140107,-1.2558359,-0.5283667,-1.0338758,0.12714966,-0.39759523,0.37790868,-0.20216462,-0.5279491,-2.2592673,0.43251628,0.8406754,-0.048332814,0.9198267,0.56754184,0.6353595,-0.7647928,-0.022788106,0.39898837,-0.7047195,1.076082,0.95615584,-0.47165078,-0.4312896,0.034467693,-1.5143818,-0.9774783,-0.90546733,-1.2891494,1.693644,0.27039346,1.1215913,-0.26704654,-0.72610843,2.188188,-2.2147505,1.4957203,-1.122523,1.4234447,-0.9040502,1.6869906,-0.7017049,0.52029234,-1.8655747,1.5188763,-1.2791579,-0.29271242,2.602435,1.0309783,-0.6586067,-0.07402905,-0.40075773,-0.32954317,0.0890067,1.6702644,-0.35176623,-0.5637348,1.8227408,0.17360629,0.98041886,-0.39137962,0.7770295,-0.222767,0.65244234,-1.0035738,-0.6190974,0.0953503,-0.5448942,0.17374513,0.62615716,-1.2034298,-0.86807114,-1.3398107,-0.6496965,0.085872434,-1.6293803,-0.40481606,-0.30626222,1.0389682,-0.24636394,1.0214759,-0.72996676,-1.2771059,0.8790913,0.053147797,-0.18306202,1.9602114,1.1154455,-0.78788155,0.23908833,1.3754184,0.2598775,0.5790283,0.8199829,0.4077283,0.051879887,-0.9711518,0.39485133,0.93006086,-0.6709254,0.36210755,-1.521551,0.84811395,-0.09510441,2.6528351,0.4481733,-0.23559724,-0.10698068,0.2601097,-0.061447147,1.4679776,-1.3318746,-0.0804875,1.5598623,2.462648,-0.20670345,-0.30174065,0.76655793,-0.12714088,-0.38192776,0.21419306,1.3991661,-0.44844714,-2.2298026,0.73660785,0.38264257,-0.5595,0.2048841,-0.5865473,0.13637684,-2.0811179,1.4355371,0.77126354,0.14634669,-0.6763268,-0.22521065,-0.8869349,0.0025696184,-1.6933126,-0.34064496,2.596444,-0.63145137,0.022358056,-1.1998073,0.28478014,-2.5262847,1.0664879,-0.47783044,0.6666877,-0.93996114,0.33108258,1.824426,-0.7204366,-0.8305356,-0.83384454,0.14760557,-0.8047305,1.6867822,0.54494977,-1.3036854,0.3244272,-0.17243658,0.64981985,-1.3117882,-1.5120041,1.3647076,1.9416965,1.8214188,-0.7364922,0.28002653,0.24718171,0.40781632,1.3766303,0.8908606,0.19822182,-0.66883135,0.586542,0.5976629,-0.5379932,-0.59338176,0.36700192,0.41298765,-0.42748204,-1.0388217,-0.15758821,1.1800928,-0.13528101,1.886674,0.7341176,-1.8789811,1.9807127,-0.28046048,0.025278699,0.21311083,-0.73079675,0.15488338,1.0816439,0.27269202,-0.26738316,0.521378,0.9494525,0.27915245,-0.8865422,0.3854501,-0.92149264,0.36793697,0.768546,0.7008553,-0.064552456,0.8645828,-0.10845137,0.27813056,0.03012589,2.631637,-0.1138145,1.0869082,3.6530821,0.20820002,0.03634082,-1.0649395,1.2031765,-0.4333861,-0.6726614,-1.1664191,1.3706869,-1.0458208,0.24118003,-0.9565902,0.72456205,-0.10515522,0.19408563,-0.020800643,1.3049442,0.7251801,0.36835587,1.2328864,-0.77051497,-2.0189114,0.24072498,0.10681103,-1.9284525,0.21437092,0.1497411,-0.2775295,0.06999127,0.018816914,-0.090836085,-0.53793716,-0.91500515,0.23796567,-1.1177473,-0.6978362,0.06417419,-0.33451372,0.77520347,0.17055038,-1.371104,1.2517323,-0.7363616,0.33421788,-0.8008038,1.4949982,-0.21042661,1.0496981,0.030240202,-1.4319595,0.8710928,0.0353666,-1.1450135,-0.701667,-0.25297305,1.2307127,1.7968194,-0.75282115,1.2457078,-0.1673721,-0.4649359,-1.3256717,0.9044216,-0.6920439,-0.65960306,-0.69476885,0.38070852,0.20727639,2.1385164,-0.57079047,-0.5380554,0.021047885,-1.4797691,-0.2959647,-0.28278974,-0.6788646,-1.1858186,-3.0408814,-0.38016078,-1.3033576,-0.46632633,-0.87631714,0.8055751,-0.7439684,-0.9801195,1.5498104,0.17924832,0.05701447,0.29016832,0.03434093,2.0086675,0.3472532,-0.51755667,0.10262238,0.58125156,1.3205577,0.41537628,-0.65874404,1.0977128,1.6887693,-0.14870135,1.4891266,0.287486,-0.71964973,1.6923078,-1.7420883,-2.2619586,-1.1780958,-1.2435269,1.0903225,0.18176873,-1.2080514,0.0024798026,0.20159703,1.6343035,-0.9232996,0.49595207,-0.4032575,1.0903267,0.5127086,-1.8921263,0.21564302,1.8675288,0.41217828,-1.1227424,0.7666089,-0.030779555,-1.2750418,-0.47034547,0.0046738475,0.19878855,-1.3996737,-0.15041138,-2.0137014,0.24410102,0.4415489,-1.1641958,-0.29078084,0.6836348,0.9149441,-0.43059817,0.1254081,-0.1496836,0.7569603,0.22313912,-0.3607832,-0.11868773,-0.1067719,-0.4041283,0.09311624,1.4289986,-2.0796206,1.0341156,2.512286,1.0358944,-1.1228713,0.31111625,0.21613234,1.1634881,0.8892241,2.08831,0.036106683,-1.8906229,-0.9082786,-0.7482294,-0.6967647,-0.62423456,-0.5815365,0.33304277,-0.67496717,0.15044378,-0.8339432,-0.25981385,1.7764813,-0.5095718,-0.39116272,1.7840328,0.29872495,-1.0826106,-0.33224478,1.0798262,1.0420696,-0.9797069,0.524964,-0.8626746,-1.740561,0.744324,-2.5187542,1.0774541,0.10309153,-0.26459527,0.55523497,0.7947295,-1.3204403,2.0815258,-1.1482508,-0.9605364,-1.3036201,-1.6277914,-0.7579582,0.008357332,0.7604555,0.9796684,0.61461556,0.65104043,1.2585051,0.18898273,-2.0795882,-1.4719789,0.11783783,0.50747937,0.751878,0.60792106,-0.13518699,-0.81612146,-0.56200933,0.8522955,0.020017305,1.041572,0.166431,-0.11827497,0.9024487,-0.53454876,0.58041775,-0.13009566,0.4033028,-0.19026884,-1.7237597,-1.2507104,-0.6874205,-0.48911694,-0.43969727,-0.7245265,0.50588256,1.931261,-0.577415,-0.063517235,-0.39259002,0.107684515,-0.19676487,1.1990244,-2.0852065,-0.12269356,1.5150728,-0.20863183,0.15147088,-1.3279419,1.8700893,-1.9770715,-0.30949095,-0.4937187,0.94854504,0.5846613,0.27133134,0.6388237,1.2068313,0.8925135,-1.3180827,-1.3107936,-0.17075513,-0.6122282,-0.93017024,-2.3208256,-0.28330812,-0.9148018,-0.5210729,2.173425,0.46866205,0.34890828,1.1932349,0.7943645,-1.7198185,-1.4842985,-0.9395282,-0.33019873,2.1802537,-0.10910114,-0.7578002,1.0998776,1.3682821,0.013418326,-0.5815742,0.10659501,-1.2172022,-1.3594664,-1.7898978,-1.2802639,0.2629606,0.3868873,0.20441796,0.6221536,-0.13426228,-0.7064826,0.5554393,0.39877456,1.0128236,0.20924035,0.6012104,-1.835673,0.69725513,0.37451014,-0.72299016,0.060875133,0.21548381,-0.48179716,-2.1524377,-0.988462,1.1090564,1.5480237,0.38546777,0.5746414,-1.0181338,-1.7987211,1.546192,-0.86168593,-0.022700252,0.42163786,-0.6616607,0.89986753,1.2315857,-0.814402,-1.4333942,1.4686414,0.63076204,-0.5828545,-0.50929147,0.029434325,-1.9310753,-2.1291575,-2.0004709,0.32425207,-0.1860891,0.54182476,-0.759392,1.0491267,0.1878698,0.6703195,-0.51360387,0.039685875,0.09795085,1.0399538,0.82625055,0.07283355,1.280164,-0.040545743,-0.59780484,-0.48140496,-0.61179864,0.008589213,-0.52465856,0.017890884,0.8600058,0.46934018,-0.39169082,0.15827146,-0.96167445,-0.49681428,0.43844494,0.73887396,-1.7092243,-0.50128746,0.35512018,-0.48799843,-0.91788656,-0.42502493,-1.4541389,-1.2087325,1.496944,1.7236336,-1.444319,0.33453104,1.6912224,0.7403366,1.5909741,0.09616248,1.2219651,-0.33829772,0.28827575,1.0381151,0.67967457,-0.17154512,-0.646832,0.7767387,0.91382277,1.2569674,1.6092188,-0.9086158,1.5046825,-1.7318643,0.49656406,0.7559298,1.4549664,1.0576196,-0.16568717,0.68179,-0.9178014,-0.29262024,0.25080293,-1.7799512,0.5539901,-1.462166,-0.5627257,0.30535215,-0.34840465,-0.011248723,0.093932286,0.3379584,0.6824743,0.38751325,0.64283496,-1.3724247,-1.7498726,0.7954191,-0.45695704,-1.0705022,-0.503815,1.0619969,-1.8650464,0.20637384,1.155077,-1.3292696,-0.06245903,-1.425186,0.74080116,0.46504968,0.1794584,0.20678557,1.6963083,-0.13054447,-0.6869791,1.3097185,0.68994546,1.9946147,0.30495942,-0.22316262,-0.67014474,-1.1573066,-1.7537947,-0.59957796,2.4846041
Darinaparsin,1.3132939,-0.7835467,-1.5799425,-1.0544883,0.17879029,-1.8233799,-0.44712666,0.36869085,-0.23295784,0.6964948,0.19408308,0.3461776,-0.64933825,0.57771033,-1.7395723,0.56950945,-0.80840147,-0.6268189,0.9785101,0.69511676,-1.5119027,-0.58941346,-0.1274458,1.239235,0.39935514,0.40472847,0.6022981,0.99067295,-0.8040762,-1.9227676,0.10473415,0.15216343,-0.6129379,-1.384481,0.43592462,0.41650113,0.44458768,-2.220441,-0.6081447,0.0016573684,-0.29917458,-2.6595864,0.111858726,1.5869415,-0.011526229,0.27861282,-0.09454447,-1.0345654,0.8650769,1.0229728,-0.16495879,-0.4482635,0.11899071,-0.16489114,-0.08950873,0.38968515,-0.553208,-0.64246935,0.8719101,-0.30800053,-0.48846784,2.4504223,0.33042976,0.95632106,-0.43497854,-0.040224954,-1.0768392,0.7132071,1.0632747,0.33562988,-0.6396389,-1.3433995,3.1951058,-1.7254305,0.25155425,-0.7687057,-0.44650608,0.6560644,-0.097767815,-0.16053353,1.4701366,0.7531345,-0.47470543,1.2995908,0.5288724,0.77064216,1.3511797,-1.0477421,-0.2655756,0.9118798,0.32166502,-0.5344142,1.3458749,1.2603796,0.026942544,-0.91832954,-0.34006262,-0.47946343,1.9119859,-0.021454757,0.001308924,-0.40730232,-0.20944723,0.06566386,1.4898423,0.9821863,0.7937757,0.47587597,0.90276104,-0.36196536,0.42890322,0.38650864,-0.39670736,-1.5052916,0.70133203,-1.0872728,0.832554,0.051038343,0.75742275,-1.0119417,-1.4489142,-1.9897376,-1.4207714,1.5021145,0.6860899,-0.69711524,1.3766577,0.119763054,-1.4006764,-0.47807974,0.98014975,-1.3271532,-0.15860231,0.7764199,-0.2637683,0.17655963,0.5098094,-0.52160573,-0.5024388,-0.30414563,-0.14686081,2.148069,0.002429868,1.3180454,-0.45550105,-1.4287431,1.5041325,-1.6837379,0.56361145,-0.0006512468,0.077784814,-0.18503092,0.91594434,-0.4517055,2.292525,-1.236327,4.4569983,-0.7051457,-1.9319203,-0.114084475,1.0498769,-0.4323527,1.4683803,1.5655003,1.2685825,1.4695741,0.16840163,0.46493152,0.31534654,1.15976,-1.0623375,0.43505776,-0.9124146,-0.26085535,0.30229113,0.0460445,-0.42174304,-1.0208609,0.92023975,-0.8399483,-0.7355327,0.634729,-1.6235694,-0.78947157,-1.0470898,-1.980999,-0.22588752,-0.041962232,-1.1664473,-0.8822071,1.4071229,0.1610261,0.6854112,-0.17628276,-0.827065,-0.85592175,1.0108963,-0.15068538,2.400739,0.647668,0.030605638,1.2718883,1.4219985,-0.23219243,-1.1266278,-0.04544595,0.22285719,0.06730419,-0.1336526,-0.36455855,0.72448415,-1.8051347,-0.21921141,-0.028948484,1.6859293,0.32724214,-0.3957961,-0.49967098,-0.39980462,0.9870626,-0.9558929,0.40990907,0.9068467,0.25592476,-0.47032753,2.2566311,2.9847813,0.43332213,-0.9176068,0.8045535,0.35069394,-1.8200046,0.021963269,1.6101066,0.18449959,-0.40431893,-1.4073976,0.19959275,-0.18392898,1.694991,0.2989736,-0.4127673,-1.5043631,1.3366523,0.17564593,-0.5654978,0.5719686,0.9119915,-1.5097215,-1.5324903,-0.13367297,-0.0922779,1.3511076,-0.5654128,-0.83307856,-2.5481699,-0.7278028,-1.0837312,0.51538557,-0.499071,-0.26889455,-0.40391698,0.23565976,1.9891796,-1.6438913,0.3691027,-0.16688175,-0.9613418,-1.3992186,0.6439843,-0.17604622,-0.3326547,-0.00703659,0.6402266,0.2301269,-0.793487,0.3477299,1.1360157,2.280506,0.7708233,0.3081249,0.64382106,0.24209824,0.72310597,1.750638,1.4891306,-0.6024846,-1.8451765,-1.0006224,0.6854373,-0.53142524,-1.4041106,0.48611656,1.9168743,-0.48634997,1.7414076,0.02429496,0.70181304,0.58052045,1.748329,0.037715722,-1.7314818,3.1910994,-1.1731168,0.75931674,0.28752756,-0.17855437,0.8028192,0.81773746,-0.03210436,-0.72662795,0.82545084,0.17008586,0.71469337,-0.059389956,0.87223226,-0.6785331,-0.24883372,0.9324709,0.9086619,-0.33955455,-0.5915029,-1.0926805,1.5445162,1.2553154,2.8696058,-0.033917934,0.8331384,0.6885566,0.024311198,-1.1239907,-0.055827834,-0.47273237,-0.28403077,-1.755134,-1.2052494,0.61868644,-0.38899508,-0.18993662,-0.6706119,1.1276405,-0.30962542,0.09198186,0.42234406,0.7916482,-0.16131395,1.254524,1.5585704,0.60073024,-0.5181026,0.74746156,-0.07935059,-2.475942,1.6472077,-0.73274213,-0.26046997,0.8515518,-0.067692645,0.5494744,-0.26010665,0.13725042,-0.069592014,-0.761703,1.0995104,-0.8673679,-0.3656819,1.2082092,0.21601008,-0.850961,1.7937131,-0.029048122,0.5545019,-1.401036,1.3065903,0.011861851,-1.3527079,-0.45438367,-1.6588812,1.104056,1.2983775,-0.98345137,0.25911316,-0.38308126,0.24294972,-0.69262797,-0.29210794,1.4134297,0.90302837,0.08014937,-1.908484,1.0657531,-1.1648526,-1.5386769,0.21493328,0.14645387,0.14269511,1.0055537,1.1202618,0.9137591,1.3943552,0.049359214,1.3873328,0.48086634,-0.19743218,-0.21922062,-1.1884832,-0.9541894,-0.6444415,0.25277075,0.06492042,0.23316063,-0.49149263,0.34167108,-0.59246194,0.99332947,1.2796044,0.27341044,-0.89478016,1.6175655,-0.6927954,-1.2228097,0.23775937,1.1140279,0.63434225,-0.3363055,-0.29751876,-1.2249372,1.4057219,0.51689404,1.8889828,0.7533143,0.31567168,1.6297742,-0.5466588,-0.5122376,-1.0317305,0.10400148,1.2669667,1.5841604,-0.73024166,-0.19667938,0.5173219,1.2118379,-1.1332794,-0.5371314,-0.40057844,0.22802226,0.46894637,-0.81908625,1.6319187,1.4250076,0.038429696,-1.2946179,0.2068878,1.8988334,-0.7802254,-1.0422398,1.5406319,-0.15548596,-0.2276595,-1.1630771,-1.0543253,0.06256334,1.2607554,0.18595909,-1.2201371,-0.4561763,1.688594,-0.79233015,-0.58675903,0.12416569,1.0141726,-0.68671143,-0.21414083,1.0306844,-1.0464545,0.41962317,0.044920947,-0.21355715,-1.0202336,-0.24561274,0.26556596,-0.045686107,-1.8904656,-0.39360693,-0.46254405,-0.58659655,0.5163965,1.4087323,0.019239215,-0.85946465,-0.41355973,-1.0373168,0.5111472,0.5724375,1.2758006,-0.38885367,-1.2207541,-0.3200521,1.1920643,0.083969586,2.0075629,0.27939764,-0.8495202,2.1588748,0.5373836,-0.21104293,0.607869,0.099245645,0.7367231,-1.6597021,0.08609719,-0.2557487,-1.3560045,0.35905638,-0.24167326,0.7014619,0.5047036,-0.86113465,1.080963,0.11696155,-1.4740318,-0.57816243,-0.8468544,0.39160603,-0.96935,0.03597402,-0.29890177,0.122181736,-0.06421813,-0.10268706,0.8306045,-0.47511086,1.5963516,0.52436835,-1.31108,-0.21403967,0.038136292,-1.1008265,-1.5069653,2.3214335,-1.166055,0.18581988,-0.3337374,0.039279375,-0.5350933,-0.016887099,-0.50235647,0.82231796,-1.6961129,-0.12940091,-0.24470839,-0.09059898,0.23116626,-0.33768395,-0.45684668,-1.6200187,0.099743456,-1.6330596,-1.0396849,-0.2202463,1.3554193,-0.55057776,-0.53684396,-0.099234864,-1.2505103,0.8222242,-0.59801066,1.0106376,-1.7029601,0.1801914,-1.0038728,-0.80859315,-1.3607864,-0.33570048,1.3926194,-0.6502703,0.16164178,-0.25512806,0.0068487492,-0.72601455,-0.95064676,-0.29077613,1.6435494,0.9997467,-2.913688,0.5313659,-0.7816491,-0.2940968,0.56438726,-0.89295983,-1.3992857,-0.8079274,-0.058366682,0.95354795,0.515491,-1.1457229,-0.53574896,0.53500754,-0.44115862,1.2162131,-1.0461535,-1.1303912,2.274687,0.10084968,-0.51754403,-0.48643473,1.0919869,-1.4839437,-0.7694321,-0.023929935,-1.0385928,-0.41157776,-0.7191697,-0.91402596,0.39848697,-0.9038976,0.059095234,-1.4013433,-0.99836963,0.1832878,0.96410775,-0.0133036785,0.5812004,0.42226744,0.42458814,-1.8644947,0.24715765,-0.6483141,-0.9089771,-0.88731194,0.59111893,0.35785687,-0.618678,-1.0795301,0.24012889,2.2542388,2.2453365,0.30577376,-1.9373009,-1.4786953,0.3697858,-0.48563802,-0.09591212,0.10357455,-0.79325575,0.615065,0.7025989,0.41493863,-1.4912556,1.8716805,0.7972754,0.34679446,0.95040554,0.7421178,-1.163291,-2.5472345,-0.88409877,-0.9621013,1.2656411,-1.8214029,-0.52619296,0.6096654,1.336714,0.5232584,-0.538397,-0.5888588,-1.09276,0.26465544,0.25529522,-0.40938732,0.39292082,-0.86568433,-0.20676932,-0.0023153815,-0.91267854,-1.4920799,-0.18860836,1.8819867,1.6686273,0.52066964,1.1880774,0.48621202,-1.1289936,-0.15787755,-0.80624026,0.7108961,0.5803638,-2.0198689,-1.3499928,-0.21602479,-0.84772736,-0.08755946,-1.8243132,-0.71675533,0.1446845,-0.4401926,-2.1766596,-0.093353115,2.797766,0.4179659,0.4819971,0.017802613,0.73908925,0.3694487,0.18895078,0.8695369,-1.1680298,0.17443037,-0.67135906,-0.23155344,1.1070058,-0.4145267,2.040179,0.67571425,1.5345933,-0.058803715,-0.34797686,0.061753176,1.0433105,0.72892284,-0.4376096,0.55577433,-0.8071259,-1.542803,-1.3229219,-1.3145345,0.8865249,-0.12550671,-0.34403908,0.972914,1.4267886,-1.0328653,0.59137034,-0.8052368,0.4707557,-0.124102265,-0.665856,-0.95811266,-3.426102,0.48241532,-0.42992976,-0.78818345,-1.6025587,-0.23849903,-0.70381266,-1.079573,1.2446681,-1.1735128,1.1735765,-1.2927737,0.4971419,-0.5957251,1.1917888,-0.09338272,1.8133551,0.014524595,-1.0892293,0.9455325,-1.057589,2.0509984,-1.09401,1.5261258,0.18428068,-0.72844267,-1.006119,-0.38610423,1.0737516
